{"learner":{"attributes":{"best_iteration":"307","best_score":"1.4190449271883283","scikit_learn":"{\"_estimator_type\": \"regressor\"}"},"feature_names":["receptions_last_1","receptions_last_3","receptions_last_5","receptions_season_avg","receptions_momentum","receptions_stability","def_allowed_receptions","fatigue_index","reliability","is_home"],"feature_types":["float","float","float","float","float","float","float","float","float","float"],"gradient_booster":{"model":{"gbtree_model_param":{"num_parallel_tree":"1","num_trees":"358"},"iteration_indptr":[0,1,2,3,4,5,6,7,8,9,10,11,12,13,14,15,16,17,18,19,20,21,22,23,24,25,26,27,28,29,30,31,32,33,34,35,36,37,38,39,40,41,42,43,44,45,46,47,48,49,50,51,52,53,54,55,56,57,58,59,60,61,62,63,64,65,66,67,68,69,70,71,72,73,74,75,76,77,78,79,80,81,82,83,84,85,86,87,88,89,90,91,92,93,94,95,96,97,98,99,100,101,102,103,104,105,106,107,108,109,110,111,112,113,114,115,116,117,118,119,120,121,122,123,124,125,126,127,128,129,130,131,132,133,134,135,136,137,138,139,140,141,142,143,144,145,146,147,148,149,150,151,152,153,154,155,156,157,158,159,160,161,162,163,164,165,166,167,168,169,170,171,172,173,174,175,176,177,178,179,180,181,182,183,184,185,186,187,188,189,190,191,192,193,194,195,196,197,198,199,200,201,202,203,204,205,206,207,208,209,210,211,212,213,214,215,216,217,218,219,220,221,222,223,224,225,226,227,228,229,230,231,232,233,234,235,236,237,238,239,240,241,242,243,244,245,246,247,248,249,250,251,252,253,254,255,256,257,258,259,260,261,262,263,264,265,266,267,268,269,270,271,272,273,274,275,276,277,278,279,280,281,282,283,284,285,286,287,288,289,290,291,292,293,294,295,296,297,298,299,300,301,302,303,304,305,306,307,308,309,310,311,312,313,314,315,316,317,318,319,320,321,322,323,324,325,326,327,328,329,330,331,332,333,334,335,336,337,338,339,340,341,342,343,344,345,346,347,348,349,350,351,352,353,354,355,356,357,358],"tree_info":[0,0,0,0,0,0,0,0,0,0,0,0,0,0,0,0,0,0,0,0,0,0,0,0,0,0,0,0,0,0,0,0,0,0,0,0,0,0,0,0,0,0,0,0,0,0,0,0,0,0,0,0,0,0,0,0,0,0,0,0,0,0,0,0,0,0,0,0,0,0,0,0,0,0,0,0,0,0,0,0,0,0,0,0,0,0,0,0,0,0,0,0,0,0,0,0,0,0,0,0,0,0,0,0,0,0,0,0,0,0,0,0,0,0,0,0,0,0,0,0,0,0,0,0,0,0,0,0,0,0,0,0,0,0,0,0,0,0,0,0,0,0,0,0,0,0,0,0,0,0,0,0,0,0,0,0,0,0,0,0,0,0,0,0,0,0,0,0,0,0,0,0,0,0,0,0,0,0,0,0,0,0,0,0,0,0,0,0,0,0,0,0,0,0,0,0,0,0,0,0,0,0,0,0,0,0,0,0,0,0,0,0,0,0,0,0,0,0,0,0,0,0,0,0,0,0,0,0,0,0,0,0,0,0,0,0,0,0,0,0,0,0,0,0,0,0,0,0,0,0,0,0,0,0,0,0,0,0,0,0,0,0,0,0,0,0,0,0,0,0,0,0,0,0,0,0,0,0,0,0,0,0,0,0,0,0,0,0,0,0,0,0,0,0,0,0,0,0,0,0,0,0,0,0,0,0,0,0,0,0,0,0,0,0,0,0,0,0,0,0,0,0,0,0,0,0,0,0,0,0,0,0,0,0,0,0,0,0,0,0,0,0,0,0,0,0,0,0,0,0,0,0,0,0,0,0,0,0],"trees":[{"base_weights":[1.0968414E-1,-3.0889237E-1,4.45E-1,-4.7648516E-1,-2.3157895E-2,2.800789E-1,7.2913116E-1,4.4444445E-1,-4.8625E-1,-5E-1,-2.1929825E-3,1.891892E-1,4.5272207E-1,6.682353E-1,8.834356E-1,-0E0,1.3333334E-2,-1.1428571E-2,-7.2000003E-3,-4E-3,-1.4545455E-2,4.347826E-3,-8.2474225E-4,1.2941177E-2,3.5384616E-3,8.447205E-3,1.5714286E-2,1.3603818E-2,-2.8571428E-3,1.8089171E-2,5.7142857E-3],"categories":[],"categories_nodes":[],"categories_segments":[],"categories_sizes":[],"default_left":[0,0,0,0,0,0,0,0,0,0,0,0,0,0,0,0,0,0,0,0,0,0,0,0,0,0,0,0,0,0,0],"id":0,"left_children":[1,3,5,7,9,11,13,15,17,19,21,23,25,27,29,-1,-1,-1,-1,-1,-1,-1,-1,-1,-1,-1,-1,-1,-1,-1,-1],"loss_changes":[4.045012E2,6.1380135E1,7.477054E1,7.482239E0,4.747456E0,1.5825516E1,4.9253845E0,8.8888896E-1,8.397324E0,1.2181821E0,3.9184704E0,3.6259632E0,3.1966248E0,4.218445E0,1.7898254E0,0E0,0E0,0E0,0E0,0E0,0E0,0E0,0E0,0E0,0E0,0E0,0E0,0E0,0E0,0E0,0E0],"parents":[2147483647,0,0,1,1,2,2,3,3,4,4,5,5,6,6,7,7,8,8,9,9,10,10,11,11,12,12,13,13,14,14],"right_children":[2,4,6,8,10,12,14,16,18,20,22,24,26,28,30,-1,-1,-1,-1,-1,-1,-1,-1,-1,-1,-1,-1,-1,-1,-1,-1],"split_conditions":[2.25E0,1.6666666E0,4.2E0,-1.7380953E0,1.65E1,3.25E0,6.2E0,3E-1,1.3333334E0,1E0,5.423809E-1,2.3333333E0,8.7142855E-1,6.4611065E-1,2.8333333E0,0E0,2E-2,-2E-2,-2E-2,0E0,-2E-2,1E-2,0E0,2E-2,0E0,2E-2,4E-2,4E-2,-1E-2,8E-2,1E-2],"split_indices":[2,2,2,4,6,2,2,8,1,7,8,2,8,5,4,0,0,0,0,0,0,0,0,0,0,0,0,0,0,0,0],"split_type":[0,0,0,0,0,0,0,0,0,0,0,0,0,0,0,0,0,0,0,0,0,0,0,0,0,0,0,0,0,0,0],"sum_hessian":[2.88E3,1.281E3,1.599E3,8.07E2,4.74E2,1.013E3,5.86E2,8E0,7.99E2,1.9E1,4.55E2,6.65E2,3.48E2,4.24E2,1.62E2,3E0,5E0,4.75E2,3.24E2,9E0,1E1,6.8E1,3.87E2,1.6E1,6.49E2,3.21E2,2.7E1,4.18E2,6E0,1.56E2,6E0],"tree_param":{"num_deleted":"0","num_feature":"10","num_nodes":"31","size_leaf_vector":"1"}},{"base_weights":[1.1728395E-1,-1.6769336E-1,4.0315935E-1,-3.4477612E-1,-1.7676767E-2,2.4E-1,6.4776635E-1,-5.4545456E-1,-3E-1,-4.3301757E-2,3.3333334E-1,2.2482435E-1,8.181818E-1,5.7568806E-1,8.5714287E-1,-4.7999998E-3,-1.2371133E-2,-6.4202333E-3,-0E0,2.3280424E-3,-1.9600727E-3,8.888889E-3,-4E-3,4.149578E-3,1.5384615E-2,1.8888887E-2,4E-3,4.210526E-3,1.25789475E-2,1.7588653E-2,5.7142857E-3],"categories":[],"categories_nodes":[],"categories_segments":[],"categories_sizes":[],"default_left":[0,0,0,0,0,0,0,0,0,0,0,0,0,0,0,0,0,0,0,0,0,0,0,0,0,0,0,0,0,0,0],"id":1,"left_children":[1,3,5,7,9,11,13,15,17,19,21,23,25,27,29,-1,-1,-1,-1,-1,-1,-1,-1,-1,-1,-1,-1,-1,-1,-1,-1],"loss_changes":[2.376283E2,3.880588E1,5.7953384E1,5.85672E0,7.1381817E0,7.4935455E0,8.28981E0,2.553402E0,3.4669266E0,6.4673862E0,3.288889E0,7.904709E0,1.5282831E0,8.347031E0,1.6210709E0,0E0,0E0,0E0,0E0,0E0,0E0,0E0,0E0,0E0,0E0,0E0,0E0,0E0,0E0,0E0,0E0],"parents":[2147483647,0,0,1,1,2,2,3,3,4,4,5,5,6,6,7,7,8,8,9,9,10,10,11,11,12,12,13,13,14,14],"right_children":[2,4,6,8,10,12,14,16,18,20,22,24,26,28,30,-1,-1,-1,-1,-1,-1,-1,-1,-1,-1,-1,-1,-1,-1,-1,-1],"split_conditions":[2.5E0,1.5E0,4.2E0,1E0,4E0,8E0,6.5E0,-1.0256411E0,1.0666667E1,-6.060606E-1,1.4666667E1,5.8578646E-1,7.9761904E-1,4.6666665E0,9E0,-1.96E-2,-1.96E-2,-1.96E-2,-9.6E-3,0E0,0E0,1.99E-2,0E0,1.96E-2,3.96E-2,5.96E-2,9.6E-3,2.92E-2,5.92E-2,7.84E-2,4.84E-2],"split_indices":[1,2,2,1,0,0,1,4,7,4,7,5,8,7,2,0,0,0,0,0,0,0,0,0,0,0,0,0,0,0,0],"split_type":[0,0,0,0,0,0,0,0,0,0,0,0,0,0,0,0,0,0,0,0,0,0,0,0,0,0,0,0,0,0,0],"sum_hessian":[2.915E3,1.46E3,1.455E3,6.69E2,7.91E2,8.74E2,5.81E2,1.2E2,5.49E2,7.38E2,5.3E1,8.53E2,2.1E1,4.35E2,1.46E2,2.4E1,9.6E1,5.13E2,3.6E1,1.88E2,5.5E2,4.4E1,9E0,8.28E2,2.5E1,1.7E1,4E0,5.6E1,3.79E2,1.4E2,6E0],"tree_param":{"num_deleted":"0","num_feature":"10","num_nodes":"31","size_leaf_vector":"1"}},{"base_weights":[7.889273E-2,-1.2108981E-1,5.148515E-1,-3.1438515E-1,2.765388E-2,2.6493508E-1,6.9714284E-1,-4.0657085E-1,-1.9414894E-1,9.940357E-4,2.5862068E-1,1.6666668E-2,3.0981594E-1,3.561644E-1,7.505519E-1,5.3333333E-3,-8.541226E-3,-1.1875E-2,-3.1304348E-3,4.090909E-3,-3.6996737E-4,-4E-3,7.010309E-3,5.925926E-3,-4.117647E-3,4.836065E-3,1.0120482E-2,3.9285715E-3,1.6666666E-2,1.3602693E-2,1.7579617E-2],"categories":[],"categories_nodes":[],"categories_segments":[],"categories_sizes":[],"default_left":[0,0,0,0,0,0,0,0,0,0,0,0,0,0,0,0,0,0,0,0,0,0,0,0,0,0,0,0,0,0,0],"id":2,"left_children":[1,3,5,7,9,11,13,15,17,19,21,23,25,27,29,-1,-1,-1,-1,-1,-1,-1,-1,-1,-1,-1,-1,-1,-1,-1,-1],"loss_changes":[2.520245E2,5.6994095E1,4.1227173E1,9.475525E0,6.9023447E0,4.2847004E0,9.293625E0,6.8320236E0,5.5605526E0,3.9952965E0,4.9589057E0,3.7948802E0,4.227995E0,5.40044E0,3.4989471E0,0E0,0E0,0E0,0E0,0E0,0E0,0E0,0E0,0E0,0E0,0E0,0E0,0E0,0E0,0E0,0E0],"parents":[2147483647,0,0,1,1,2,2,3,3,4,4,5,5,6,6,7,7,8,8,9,9,10,10,11,11,12,12,13,13,14,14],"right_children":[2,4,6,8,10,12,14,16,18,20,22,24,26,28,30,-1,-1,-1,-1,-1,-1,-1,-1,-1,-1,-1,-1,-1,-1,-1,-1],"split_conditions":[3.4E0,1.8E0,4.2E0,1.3333334E0,5.2786404E-1,1.8166666E1,4.3333335E0,1.5E1,1.72E1,5.038095E-1,1.5E0,1.688889E1,7.778571E-1,6.3333335E0,6.3333335E0,7.9200027E-4,-1.9208E-2,-1.96E-2,-1.9208E-2,1.98E-2,0E0,-1.9208E-2,2E-2,5.8808003E-2,-7.919979E-4,1.9208001E-2,1.9208001E-2,3.8615998E-2,5.6832E-2,5.8016E-2,7.6832004E-2],"split_indices":[2,3,3,3,5,6,7,6,6,8,1,6,8,1,1,0,0,0,0,0,0,0,0,0,0,0,0,0,0,0,0],"split_type":[0,0,0,0,0,0,0,0,0,0,0,0,0,0,0,0,0,0,0,0,0,0,0,0,0,0,0,0,0,0,0],"sum_hessian":[2.889E3,1.981E3,9.08E2,8.61E2,1.12E3,3.84E2,5.24E2,4.86E2,3.75E2,1.005E3,1.15E2,5.9E1,3.25E2,7.2E1,4.52E2,1.4E1,4.72E2,3.1E1,3.44E2,8.7E1,9.18E2,1.9E1,9.6E1,2.6E1,3.3E1,2.43E2,8.2E1,5.5E1,1.7E1,2.96E2,1.56E2],"tree_param":{"num_deleted":"0","num_feature":"10","num_nodes":"31","size_leaf_vector":"1"}},{"base_weights":[8.49089E-2,-1.2190083E-1,4.958932E-1,-4.2592594E-1,-1.9986216E-2,2.6277372E-1,6.648936E-1,-2.6870748E-1,-6.632124E-1,-1.7760618E-1,1.424979E-2,1.6906475E-1,4.552239E-1,5.4575163E-1,8.030888E-1,6.2499996E-3,-6.0215057E-3,-1.3723404E-2,3.3333334E-3,-1.6666666E-2,-2.5619834E-3,6.9444446E-5,6.1904765E-3,-3.404255E-3,4.741379E-3,5E-3,1.2266667E-2,-8E-3,1.1192054E-2,1.7046412E-2,5.217391E-3],"categories":[],"categories_nodes":[],"categories_segments":[],"categories_sizes":[],"default_left":[0,0,0,0,0,0,0,0,0,0,0,0,0,0,0,0,0,0,0,0,0,0,0,0,0,0,0,0,0,0,0],"id":3,"left_children":[1,3,5,7,9,11,13,15,17,19,21,23,25,27,29,-1,-1,-1,-1,-1,-1,-1,-1,-1,-1,-1,-1,-1,-1,-1,-1],"loss_changes":[2.4731253E2,5.997767E1,3.8198227E1,1.7952415E1,7.83253E0,7.3351364E0,8.84787E0,5.6249313E0,3.7914352E0,8.301191E0,3.7954519E0,6.4544525E0,4.1946774E0,4.2323227E0,6.6915283E0,0E0,0E0,0E0,0E0,0E0,0E0,0E0,0E0,0E0,0E0,0E0,0E0,0E0,0E0,0E0,0E0],"parents":[2147483647,0,0,1,1,2,2,3,3,4,4,5,5,6,6,7,7,8,8,9,9,10,10,11,11,12,12,13,13,14,14],"right_children":[2,4,6,8,10,12,14,16,18,20,22,24,26,28,30,-1,-1,-1,-1,-1,-1,-1,-1,-1,-1,-1,-1,-1,-1,-1,-1],"split_conditions":[3.25E0,1.3333334E0,4.142857E0,4.2705098E-1,1.6E0,2.2222222E-1,8.333333E0,1.5E1,8.888889E-1,1.72E1,1.4545455E0,2E0,2.075E1,3.2E0,1.8333334E1,7.7615975E-4,-1.882384E-2,-1.882384E-2,1.1761594E-3,-1.9603997E-2,-1.882384E-2,0E0,1.999216E-2,-3.9199827E-4,1.8823843E-2,1.803184E-2,3.8623843E-2,-3.9199827E-4,3.804768E-2,7.529536E-2,1.6855678E-2],"split_indices":[3,3,3,5,2,4,7,6,4,6,4,0,6,2,7,0,0,0,0,0,0,0,0,0,0,0,0,0,0,0,0],"split_type":[0,0,0,0,0,0,0,0,0,0,0,0,0,0,0,0,0,0,0,0,0,0,0,0,0,0,0,0,0,0,0],"sum_hessian":[2.908E3,1.935E3,9.73E2,4.85E2,1.45E3,4.1E2,5.63E2,2.93E2,1.92E2,2.58E2,1.192E3,2.77E2,1.33E2,3.05E2,2.58E2,1.5E1,2.78E2,1.87E2,5E0,1.7E1,2.41E2,1.151E3,4.1E1,4.6E1,2.31E2,5.9E1,7.4E1,4E0,3.01E2,2.36E2,2.2E1],"tree_param":{"num_deleted":"0","num_feature":"10","num_nodes":"31","size_leaf_vector":"1"}},{"base_weights":[7.491409E-2,-6.700594E-2,6.7992765E-1,-3.9538714E-1,4.6803653E-2,6.0367453E-1,8.4393066E-1,-1.574074E-1,-4.46E-1,-5.8565154E-3,2.3255815E-1,4.245283E-1,6.702899E-1,8.5465115E-1,-1E-2,-4.6666665E-3,4.210526E-3,-1.3012048E-2,-8.086124E-3,-8.930232E-4,2.7397259E-3,-1.3888889E-3,6.012658E-3,9.8E-3,-1.1428571E-2,-0E0,1.380597E-2,-1E-2,1.7309941E-2],"categories":[],"categories_nodes":[],"categories_segments":[],"categories_sizes":[],"default_left":[0,0,0,0,0,0,0,0,0,0,0,0,0,0,0,0,0,0,0,0,0,0,0,0,0,0,0,0,0],"id":4,"left_children":[1,3,5,7,9,11,13,15,17,19,21,23,25,27,-1,-1,-1,-1,-1,-1,-1,-1,-1,-1,-1,-1,-1,-1,-1],"loss_changes":[2.4990848E2,8.8143875E1,6.4062195E0,7.2410126E0,1.7139185E1,4.262253E0,2.9198456E0,3.0661795E0,4.002281E0,7.5758557E0,7.9771156E0,7.191942E0,3.7015991E0,2.9598465E0,0E0,0E0,0E0,0E0,0E0,0E0,0E0,0E0,0E0,0E0,0E0,0E0,0E0,0E0,0E0],"parents":[2147483647,0,0,1,1,2,2,3,3,4,4,5,5,6,6,7,7,8,8,9,9,10,10,11,11,12,12,13,13],"right_children":[2,4,6,8,10,12,14,16,18,20,22,24,26,28,-1,-1,-1,-1,-1,-1,-1,-1,-1,-1,-1,-1,-1,-1,-1],"split_conditions":[4.142857E0,1.4545455E0,6.3333335E0,1.8181818E1,3.25E0,1.9357143E1,1.0666667E1,1.79375E1,1E0,4.4444445E-1,1.8222221E1,1.9142857E1,3E0,4.2E0,-4.2105485E-3,-1.8447364E-2,1.5526366E-3,-1.8447364E-2,-1.8447364E-2,0E0,1.8823843E-2,-7.684755E-4,1.8831681E-2,3.7082724E-2,-4.6777534E-3,6.5887235E-3,5.5349767E-2,-4.4258066E-2,7.3789455E-2],"split_indices":[3,3,1,6,3,6,1,6,1,4,6,6,1,3,0,0,0,0,0,0,0,0,0,0,0,0,0,0,0],"split_type":[0,0,0,0,0,0,0,0,0,0,0,0,0,0,0,0,0,0,0,0,0,0,0,0,0,0,0,0,0],"sum_hessian":[2.909E3,2.357E3,5.52E2,6.06E2,1.751E3,3.8E2,1.72E2,1.07E2,4.99E2,1.365E3,3.86E2,1.05E2,2.75E2,1.71E2,1E0,8.9E1,1.8E1,8.2E1,4.17E2,1.074E3,2.91E2,7.1E1,3.15E2,9.9E1,6E0,8E0,2.67E2,1E0,1.7E2],"tree_param":{"num_deleted":"0","num_feature":"10","num_nodes":"29","size_leaf_vector":"1"}},{"base_weights":[5.02928E-2,-1.5953109E-1,4.8726115E-1,-4.4353184E-1,-6.571816E-2,2.6950353E-1,6.6346157E-1,-3.3730158E-1,-5.5508476E-1,-4.5454547E-1,-4.7484055E-2,2.39899E-1,6.785714E-1,5.718391E-1,8.4393066E-1,-7.016129E-3,8E-3,-1.3028571E-2,-5.483871E-3,1.3333334E-2,-1E-2,-1.7672413E-3,6.198347E-4,-9.756097E-4,5.449438E-3,1.6153846E-2,-1.3333334E-2,4.210526E-3,1.2808219E-2,1.7093023E-2,-1E-2],"categories":[],"categories_nodes":[],"categories_segments":[],"categories_sizes":[],"default_left":[0,0,0,0,0,0,0,0,0,0,0,0,0,0,0,0,0,0,0,0,0,0,0,0,0,0,0,0,0,0,0],"id":5,"left_children":[1,3,5,7,9,11,13,15,17,19,21,23,25,27,29,-1,-1,-1,-1,-1,-1,-1,-1,-1,-1,-1,-1,-1,-1,-1,-1],"loss_changes":[2.6624335E2,5.2244305E1,3.5964752E1,5.5838623E0,1.0443133E1,4.959858E0,8.115631E0,2.6495247E0,6.208046E0,3.69697E0,4.5291348E0,3.7369328E0,5.4020147E0,8.48719E0,2.9198456E0,0E0,0E0,0E0,0E0,0E0,0E0,0E0,0E0,0E0,0E0,0E0,0E0,0E0,0E0,0E0,0E0],"parents":[2147483647,0,0,1,1,2,2,3,3,4,4,5,5,6,6,7,7,8,8,9,9,10,10,11,11,12,12,13,13,14,14],"right_children":[2,4,6,8,10,12,14,16,18,20,22,24,26,28,30,-1,-1,-1,-1,-1,-1,-1,-1,-1,-1,-1,-1,-1,-1,-1,-1],"split_conditions":[3.25E0,1.3333334E0,4.214286E0,1.7316213E-1,1E0,4.6666665E0,6.3333335E0,1.4E1,2E0,1.7316213E-1,4.3405783E-1,2E0,7E0,1E0,1.9E1,-1.8078415E-2,1.1721585E-2,-1.8078415E-2,-1.8078415E-2,5.0192077E-2,-1.8447364E-2,-3.9199827E-4,7.681846E-6,-9.7615714E-4,1.8447366E-2,7.4987724E-2,-4.3131165E-2,3.597573E-2,5.4987725E-2,7.231367E-2,-5.333543E-3],"split_indices":[2,3,3,5,1,2,1,7,0,5,5,0,1,7,7,0,0,0,0,0,0,0,0,0,0,0,0,0,0,0,0],"split_type":[0,0,0,0,0,0,0,0,0,0,0,0,0,0,0,0,0,0,0,0,0,0,0,0,0,0,0,0,0,0,0],"sum_hessian":[2.902E3,1.961E3,9.41E2,4.86E2,1.475E3,4.22E2,5.19E2,2.51E2,2.35E2,6.5E1,1.41E3,3.95E2,2.7E1,3.47E2,1.72E2,2.47E2,4E0,1.74E2,6.1E1,2E0,6.3E1,9.27E2,4.83E2,4E1,3.55E2,2.5E1,2E0,5.6E1,2.91E2,1.71E2,1E0],"tree_param":{"num_deleted":"0","num_feature":"10","num_nodes":"31","size_leaf_vector":"1"}},{"base_weights":[7.774706E-2,-1.1945564E-1,5.0713503E-1,-3.5946745E-1,4.5836517E-3,2.5329816E-1,6.866792E-1,-5.7425743E-1,-3.2118055E-1,4.103479E-2,-2.1164021E-1,1.9805194E-1,4.861111E-1,5.427136E-1,7.7014923E-1,-1.4285714E-3,-1.2954544E-2,-7.73399E-3,-3.2748538E-3,-3.6206895E-3,1.3320079E-3,3.4285714E-3,-5.9354836E-3,2.4545453E-3,7.6404493E-3,1.2075472E-2,3E-3,1.1167513E-2,-1.3333334E-2,1.3114754E-2,1.8039215E-2],"categories":[],"categories_nodes":[],"categories_segments":[],"categories_sizes":[],"default_left":[0,0,0,0,0,0,0,0,0,0,0,0,0,0,0,0,0,0,0,0,0,0,0,0,0,0,0,0,0,0,0],"id":6,"left_children":[1,3,5,7,9,11,13,15,17,19,21,23,25,27,29,-1,-1,-1,-1,-1,-1,-1,-1,-1,-1,-1,-1,-1,-1,-1,-1],"loss_changes":[2.4511427E2,5.906711E1,4.1344833E1,5.3747406E0,1.03257065E1,4.7784367E0,5.986969E0,3.6849556E0,5.878212E0,6.376351E0,6.214576E0,4.2212315E0,2.7568665E0,4.1415863E0,4.460617E0,0E0,0E0,0E0,0E0,0E0,0E0,0E0,0E0,0E0,0E0,0E0,0E0,0E0,0E0,0E0,0E0],"parents":[2147483647,0,0,1,1,2,2,3,3,4,4,5,5,6,6,7,7,8,8,9,9,10,10,11,11,12,12,13,13,14,14],"right_children":[2,4,6,8,10,12,14,16,18,20,22,24,26,28,30,-1,-1,-1,-1,-1,-1,-1,-1,-1,-1,-1,-1,-1,-1,-1,-1],"split_conditions":[3.4E0,1.5384616E0,4.2E0,1E0,8.3E-1,6E0,6.045177E-1,3.7833393E-1,1.3333334E0,1E0,-5.555556E-1,4.3333335E0,4E0,5.2786404E-1,5.285714E0,-1.7716845E-2,-1.7716845E-2,-1.7716845E-2,-1.8078567E-2,-1.8078415E-2,7.839203E-6,1.9823289E-2,-5.7655334E-4,1.7701782E-2,3.63197E-2,3.7292097E-2,1.578682E-2,3.5256214E-2,-1.5612028E-2,5.2604344E-2,7.1167395E-2],"split_indices":[2,3,3,1,8,0,8,5,3,0,4,1,3,5,3,0,0,0,0,0,0,0,0,0,0,0,0,0,0,0,0],"split_type":[0,0,0,0,0,0,0,0,0,0,0,0,0,0,0,0,0,0,0,0,0,0,0,0,0,0,0,0,0,0,0],"sum_hessian":[2.893E3,1.983E3,9.1E2,6.75E2,1.308E3,3.78E2,5.32E2,1E2,5.75E2,1.12E3,1.88E2,3.07E2,7.1E1,1.98E2,3.34E2,1.3E1,8.7E1,4.05E2,1.7E2,1.15E2,1.005E3,3.4E1,1.54E2,2.19E2,8.8E1,5.2E1,1.9E1,1.96E2,2E0,1.82E2,1.52E2],"tree_param":{"num_deleted":"0","num_feature":"10","num_nodes":"31","size_leaf_vector":"1"}},{"base_weights":[7.747686E-2,-1.1396874E-1,4.8342246E-1,-3.803419E-1,3.198128E-2,2.9942417E-1,7.13253E-1,-4.4726562E-1,-1.9895288E-1,7.390817E-2,-6.410257E-2,2.4626866E-1,4.75E-1,4.5528457E-1,8.191126E-1,-8.369098E-3,-1.4468084E-2,-1.1162791E-2,-1.8791946E-3,4.3859647E-5,2.9680366E-3,1.12499995E-2,-1.8133332E-3,3.915663E-3,9.577465E-3,6.888889E-3,1.6774192E-2,1.03508765E-2,-6E-3,1.662069E-2,-5E-3],"categories":[],"categories_nodes":[],"categories_segments":[],"categories_sizes":[],"default_left":[0,0,0,0,0,0,0,0,0,0,0,0,0,0,0,0,0,0,0,0,0,0,0,0,0,0,0,0,0,0,0],"id":7,"left_children":[1,3,5,7,9,11,13,15,17,19,21,23,25,27,29,-1,-1,-1,-1,-1,-1,-1,-1,-1,-1,-1,-1,-1,-1,-1,-1],"loss_changes":[2.2675412E2,7.710558E1,3.932611E1,8.4327545E0,5.1692715E0,4.7454224E0,1.0960083E1,3.77063E0,7.1505756E0,4.770373E0,6.5426025E0,4.626999E0,5.4092293E0,5.939152E0,3.942276E0,0E0,0E0,0E0,0E0,0E0,0E0,0E0,0E0,0E0,0E0,0E0,0E0,0E0,0E0,0E0,0E0],"parents":[2147483647,0,0,1,1,2,2,3,3,4,4,5,5,6,6,7,7,8,8,9,9,10,10,11,11,12,12,13,13,14,14],"right_children":[2,4,6,8,10,12,14,16,18,20,22,24,26,28,30,-1,-1,-1,-1,-1,-1,-1,-1,-1,-1,-1,-1,-1,-1,-1,-1],"split_conditions":[3.25E0,1.5384616E0,4.6E0,1.3333334E0,1.3333334E-1,6E0,1.7316213E-1,7.7E-1,-3.809524E-1,3.3333333E0,1.6666666E0,4.2E0,2.2375E1,1.0333333E1,9E0,-1.7362509E-2,-1.7562509E-2,-1.7716996E-2,-1.7709004E-2,6.1273573E-7,7.345176E-4,7.8384875E-4,-3.8431643E-4,1.7347746E-2,3.263689E-2,3.354819E-2,5.370439E-2,3.455109E-2,-8.653731E-3,6.9444045E-2,-6.995964E-3],"split_indices":[2,3,3,3,4,0,5,8,4,7,2,3,6,7,2,0,0,0,0,0,0,0,0,0,0,0,0,0,0,0,0],"split_type":[0,0,0,0,0,0,0,0,0,0,0,0,0,0,0,0,0,0,0,0,0,0,0,0,0,0,0,0,0,0,0],"sum_hessian":[2.916E3,1.982E3,9.34E2,7.01E2,1.281E3,5.2E2,4.14E2,5.11E2,1.9E2,8.92E2,3.89E2,4.01E2,1.19E2,1.22E2,2.92E2,4.65E2,4.6E1,4.2E1,1.48E2,4.55E2,4.37E2,1.5E1,3.74E2,3.31E2,7E1,8.9E1,3E1,1.13E2,9E0,2.89E2,3E0],"tree_param":{"num_deleted":"0","num_feature":"10","num_nodes":"31","size_leaf_vector":"1"}},{"base_weights":[7.223169E-2,-1.2462159E-1,4.811321E-1,-4.057239E-1,-4.3196543E-3,2.6834863E-1,6.589595E-1,2.3529412E-1,-4.2387542E-1,-1.796875E-1,1.3470681E-2,2.0895523E-1,4.6078432E-1,3.5365853E-1,7.146119E-1,2.6666666E-3,1.3333334E-2,-6.592592E-3,-1.0097087E-2,-1.495327E-3,-1.3636364E-2,2.264151E-3,-5.605381E-4,4.4984804E-3,-1.1428571E-2,1.875E-3,1.2394366E-2,3.939394E-3,1.8823529E-2,1.2573529E-2,1.7005987E-2],"categories":[],"categories_nodes":[],"categories_segments":[],"categories_sizes":[],"default_left":[0,0,0,0,0,0,0,0,0,0,0,0,0,0,0,0,0,0,0,0,0,0,0,0,0,0,0,0,0,0,0],"id":8,"left_children":[1,3,5,7,9,11,13,15,17,19,21,23,25,27,29,-1,-1,-1,-1,-1,-1,-1,-1,-1,-1,-1,-1,-1,-1,-1,-1],"loss_changes":[2.3630804E2,6.702385E1,3.5921326E1,7.0111923E0,4.335896E0,4.88694E0,8.56546E0,6.5882355E-1,4.244835E0,6.6925917E0,5.226388E0,4.3032265E0,5.8919926E0,7.3633327E0,4.5726624E0,0E0,0E0,0E0,0E0,0E0,0E0,0E0,0E0,0E0,0E0,0E0,0E0,0E0,0E0,0E0,0E0],"parents":[2147483647,0,0,1,1,2,2,3,3,4,4,5,5,6,6,7,7,8,8,9,9,10,10,11,11,12,12,13,13,14,14],"right_children":[2,4,6,8,10,12,14,16,18,20,22,24,26,28,30,-1,-1,-1,-1,-1,-1,-1,-1,-1,-1,-1,-1,-1,-1,-1,-1],"split_conditions":[3.25E0,1.4545455E0,4.214286E0,1.5E1,1.725E1,2.2545454E1,5E0,1E0,1.7316213E-1,8.666667E0,2.636541E-1,6.4611065E-1,5.3333335E0,6.2E0,5.5333333E0,2.1927403E-3,2.1927403E-3,-1.701526E-2,-1.701526E-2,-3.9900778E-4,-1.9569108E-2,7.669925E-6,-7.009506E-6,1.7000789E-2,-4.138577E-3,1.5081849E-2,3.738718E-2,3.1447005E-2,4.0616203E-2,5.0249018E-2,6.805517E-2],"split_indices":[2,3,3,6,6,6,7,7,5,7,5,5,7,2,3,0,0,0,0,0,0,0,0,0,0,0,0,0,0,0,0],"split_type":[0,0,0,0,0,0,0,0,0,0,0,0,0,0,0,0,0,0,0,0,0,0,0,0,0,0,0,0,0,0,0],"sum_hessian":[2.934E3,1.981E3,9.53E2,5.93E2,1.388E3,4.35E2,5.18E2,1.6E1,5.77E2,1.27E2,1.261E3,3.34E2,1.01E2,8.1E1,4.37E2,1.4E1,2E0,2.69E2,3.08E2,1.06E2,2.1E1,3.7E2,8.91E2,3.28E2,6E0,3.1E1,7E1,6.5E1,1.6E1,2.71E2,1.66E2],"tree_param":{"num_deleted":"0","num_feature":"10","num_nodes":"31","size_leaf_vector":"1"}},{"base_weights":[7.083043E-2,-6.458511E-2,6.691871E-1,-3.602837E-1,6.3035496E-2,5.048077E-1,7.7329195E-1,2.0833333E-1,-3.797654E-1,1.6116036E-2,2.1065989E-1,4.5502645E-1,1.9E-2,7.84375E-1,-1.3333334E-2,-1E-2,5.217391E-3,-8.958333E-3,-4.3349755E-3,1.7973856E-4,1E-2,2.0304567E-3,6.363636E-3,3.2142857E-3,1.1492537E-2,1.3551912E-2,1.8405797E-2],"categories":[],"categories_nodes":[],"categories_segments":[],"categories_sizes":[],"default_left":[0,0,0,0,0,0,0,0,0,0,0,0,0,0,0,0,0,0,0,0,0,0,0,0,0,0,0],"id":9,"left_children":[1,3,5,7,9,11,13,15,17,19,21,23,-1,25,-1,-1,-1,-1,-1,-1,-1,-1,-1,-1,-1,-1,-1],"loss_changes":[2.3226602E2,8.825236E1,8.662247E0,7.8888474E0,1.1314436E1,4.1774673E0,5.6617737E0,1.0235509E0,7.4797974E0,4.276535E0,4.591139E0,6.560425E0,0E0,4.0205383E0,0E0,0E0,0E0,0E0,0E0,0E0,0E0,0E0,0E0,0E0,0E0,0E0,0E0],"parents":[2147483647,0,0,1,1,2,2,3,3,4,4,5,5,6,6,7,7,8,8,9,9,10,10,11,11,13,13],"right_children":[2,4,6,8,10,12,14,16,18,20,22,24,-1,26,-1,-1,-1,-1,-1,-1,-1,-1,-1,-1,-1,-1,-1],"split_conditions":[4.142857E0,1.6E0,7.3333335E0,1.5666667E1,3.25E0,6.3333335E0,9E0,-5.1282052E-2,1.3333334E0,6.90983E-1,2.08E1,3.3333333E0,2.9803876E-2,5.5E0,-9.697146E-3,-1.6999068E-2,2.1488857E-3,-1.6674954E-2,-1.7022353E-2,7.5173375E-6,1.921556E-3,1.6082518E-2,3.394197E-2,3.3231128E-2,3.1970166E-2,5.044202E-2,6.6694066E-2],"split_indices":[3,3,7,6,2,1,2,4,3,5,6,7,0,3,0,0,0,0,0,0,0,0,0,0,0,0,0],"split_type":[0,0,0,0,0,0,0,0,0,0,0,0,0,0,0,0,0,0,0,0,0,0,0,0,0,0,0],"sum_hessian":[2.865E3,2.337E3,5.28E2,7.04E2,1.633E3,2.07E2,3.21E2,2.3E1,6.81E2,1.24E3,3.93E2,1.88E2,1.9E1,3.19E2,2E0,1E0,2.2E1,4.79E2,2.02E2,1.223E3,1.7E1,1.96E2,1.97E2,5.5E1,1.33E2,1.82E2,1.37E2],"tree_param":{"num_deleted":"0","num_feature":"10","num_nodes":"27","size_leaf_vector":"1"}},{"base_weights":[7.26084E-2,-1.16758935E-1,4.8152173E-1,-4.2307693E-1,1.5107914E-2,2.4407583E-1,6.8136275E-1,-3.1849316E-1,-5.2117264E-1,4.0630184E-2,-1.5135135E-1,1.0666667E-1,3.989899E-1,3.561644E-1,7.35363E-1,4.285714E-3,-6.8817204E-3,-1.2118643E-2,-4.7222218E-3,-3.8709675E-3,1.2028725E-3,6.0606063E-3,-4.9673202E-3,3.5359117E-3,-3.5555556E-3,4.8351646E-3,1.0555556E-2,4.4827587E-3,1.625E-2,1.2992125E-2,1.7126435E-2],"categories":[],"categories_nodes":[],"categories_segments":[],"categories_sizes":[],"default_left":[0,0,0,0,0,0,0,0,0,0,0,0,0,0,0,0,0,0,0,0,0,0,0,0,0,0,0,0,0,0,0],"id":10,"left_children":[1,3,5,7,9,11,13,15,17,19,21,23,25,27,29,-1,-1,-1,-1,-1,-1,-1,-1,-1,-1,-1,-1,-1,-1,-1,-1],"loss_changes":[2.2508183E2,8.0267654E1,4.3489E1,5.9690247E0,5.911451E0,8.940393E0,8.500916E0,4.05525E0,7.2745743E0,5.522615E0,8.230373E0,4.519681E0,3.881813E0,4.2160196E0,3.8730164E0,0E0,0E0,0E0,0E0,0E0,0E0,0E0,0E0,0E0,0E0,0E0,0E0,0E0,0E0,0E0,0E0],"parents":[2147483647,0,0,1,1,2,2,3,3,4,4,5,5,6,6,7,7,8,8,9,9,10,10,11,11,12,12,13,13,14,14],"right_children":[2,4,6,8,10,12,14,16,18,20,22,24,26,28,30,-1,-1,-1,-1,-1,-1,-1,-1,-1,-1,-1,-1,-1,-1,-1,-1],"split_conditions":[3.25E0,1.4545455E0,4.214286E0,1.7316213E-1,8.3E-1,2.2222222E-1,4.3333335E0,1.5E1,1.3333334E0,1.5384616E0,-5.555556E-1,7.6666665E0,2.0666666E1,6.2E0,5.5333333E0,2.1059082E-3,-1.6341455E-2,-1.6341455E-2,-1.6681904E-2,-1.7564075E-2,1.50489805E-5,1.9588675E-2,-7.414341E-4,1.6339125E-2,-2.882285E-3,1.5339158E-2,3.483979E-2,3.256651E-2,2.9207796E-2,4.8235197E-2,6.536018E-2],"split_indices":[2,3,3,5,8,4,7,6,3,3,4,7,6,2,3,0,0,0,0,0,0,0,0,0,0,0,0,0,0,0,0],"split_type":[0,0,0,0,0,0,0,0,0,0,0,0,0,0,0,0,0,0,0,0,0,0,0,0,0,0,0,0,0,0,0],"sum_hessian":[2.905E3,1.986E3,9.19E2,5.97E2,1.389E3,4.21E2,4.98E2,2.91E2,3.06E2,1.205E3,1.84E2,2.24E2,1.97E2,7.2E1,4.26E2,1.3E1,2.78E2,2.35E2,7.1E1,9.2E1,1.113E3,3.2E1,1.52E2,1.8E2,4.4E1,9E1,1.07E2,5.7E1,1.5E1,2.53E2,1.73E2],"tree_param":{"num_deleted":"0","num_feature":"10","num_nodes":"31","size_leaf_vector":"1"}},{"base_weights":[8.3333336E-2,-8.375518E-2,5.5598956E-1,-3.5319766E-1,4.1049797E-2,2.8806585E-1,6.7870724E-1,-4.1566265E-1,-1.8848167E-1,1.714731E-2,1.9117647E-1,4.427481E-1,1.0619469E-1,5.543478E-1,8.12749E-1,-6.177606E-3,-1.0583333E-2,-5.4430375E-3,4.117647E-3,8.5031E-4,-3.3548388E-3,2.8124999E-3,1.8461538E-2,-6E-3,1E-2,1.1764706E-2,4.1237113E-4,7.7499994E-3,1.23857865E-2,1.6546184E-2,-1.3333334E-2],"categories":[],"categories_nodes":[],"categories_segments":[],"categories_sizes":[],"default_left":[0,0,0,0,0,0,0,0,0,0,0,0,0,0,0,0,0,0,0,0,0,0,0,0,0,0,0,0,0,0,0],"id":11,"left_children":[1,3,5,7,9,11,13,15,17,19,21,23,25,27,29,-1,-1,-1,-1,-1,-1,-1,-1,-1,-1,-1,-1,-1,-1,-1,-1],"loss_changes":[2.3223431E2,7.308763E1,2.5055527E1,7.000473E0,5.3290854E0,6.789116E0,8.317535E0,5.872429E0,6.358368E0,6.024794E0,7.417916E0,5.7206097E0,4.6492534E0,2.7505798E0,5.9582367E0,0E0,0E0,0E0,0E0,0E0,0E0,0E0,0E0,0E0,0E0,0E0,0E0,0E0,0E0,0E0,0E0],"parents":[2147483647,0,0,1,1,2,2,3,3,4,4,5,5,6,6,7,7,8,8,9,9,10,10,11,11,12,12,13,13,14,14],"right_children":[2,4,6,8,10,12,14,16,18,20,22,24,26,28,30,-1,-1,-1,-1,-1,-1,-1,-1,-1,-1,-1,-1,-1,-1,-1,-1],"split_conditions":[3.8E0,1.5384616E0,4.214286E0,1.3333334E0,3.25E0,4E0,8.333333E0,1.7316213E-1,2.33E1,8.372222E-1,9E-1,2.857143E0,6E-1,5E0,9.3333334E-1,-1.6014626E-2,-1.6014626E-2,-1.6348425E-2,2.8830958E-3,7.0667265E-6,-3.8049696E-4,1.5612344E-2,2.5650207E-2,-4.363222E-3,3.256633E-2,4.434014E-2,1.1924409E-2,3.0783638E-2,4.8468478E-2,4.9513005E-2,-1.0582213E-2],"split_indices":[2,3,3,3,2,3,7,5,6,8,8,3,8,7,8,0,0,0,0,0,0,0,0,0,0,0,0,0,0,0,0],"split_type":[0,0,0,0,0,0,0,0,0,0,0,0,0,0,0,0,0,0,0,0,0,0,0,0,0,0,0,0,0,0,0],"sum_hessian":[2.939E3,2.172E3,7.67E2,6.87E2,1.485E3,2.42E2,5.25E2,4.97E2,1.9E2,1.282E3,2.03E2,1.3E2,1.12E2,2.75E2,2.5E2,2.58E2,2.39E2,1.57E2,3.3E1,1.128E3,1.54E2,1.91E2,1.2E1,9E0,1.21E2,1.6E1,9.6E1,7.9E1,1.96E2,2.48E2,2E0],"tree_param":{"num_deleted":"0","num_feature":"10","num_nodes":"31","size_leaf_vector":"1"}},{"base_weights":[8.256568E-2,-5.2432887E-2,6.69708E-1,-3.5724333E-1,7.706093E-2,5.412541E-1,8.2520324E-1,-6.542056E-1,-3.0413222E-1,2.9664325E-2,2.3096447E-1,-4E-1,5.5518395E-1,8.711111E-1,3.181818E-1,-3.3333334E-3,-1.4888888E-2,-7.799043E-3,-2.2340426E-3,3.7696334E-3,3.666361E-5,1.4201184E-3,6.9911503E-3,-1.5E-2,1E-2,1.5421686E-2,9.400921E-3,1.7737556E-2,-0E0,-1.6666667E-3,1.4545455E-2],"categories":[],"categories_nodes":[],"categories_segments":[],"categories_sizes":[],"default_left":[0,0,0,0,0,0,0,0,0,0,0,0,0,0,0,0,0,0,0,0,0,0,0,0,0,0,0,0,0,0,0],"id":12,"left_children":[1,3,5,7,9,11,13,15,17,19,21,23,25,27,29,-1,-1,-1,-1,-1,-1,-1,-1,-1,-1,-1,-1,-1,-1,-1,-1],"loss_changes":[2.3235606E2,9.412655E1,1.04991E1,1.1014923E1,1.2204152E1,4.1948624E0,5.4487915E0,4.5833855E0,9.947613E0,5.661762E0,7.4493484E0,1.95E0,5.13356E0,3.090271E0,3.6742427E0,0E0,0E0,0E0,0E0,0E0,0E0,0E0,0E0,0E0,0E0,0E0,0E0,0E0,0E0,0E0,0E0],"parents":[2147483647,0,0,1,1,2,2,3,3,4,4,5,5,6,6,7,7,8,8,9,9,10,10,11,11,12,12,13,13,14,14],"right_children":[2,4,6,8,10,12,14,16,18,20,22,24,26,28,30,-1,-1,-1,-1,-1,-1,-1,-1,-1,-1,-1,-1,-1,-1,-1,-1],"split_conditions":[4.2E0,1.5833334E0,8.333333E0,1E0,3.3333333E0,3.2E0,1.8333334E1,3.7833393E-1,1.3333334E0,1.3333334E0,2.04E1,4E0,-4.7619048E-1,2.625E1,5.3333335E0,-1.5694333E-2,-1.5694333E-2,-1.5694333E-2,-1.6021296E-2,9.680116E-4,8.0823895E-7,1.4263191E-2,3.2673452E-2,-1.7725325E-3,3.7862122E-2,4.716076E-2,3.1318646E-2,6.306272E-2,-1.3452658E-2,-1.0159893E-2,2.8038915E-2],"split_indices":[3,3,7,1,2,2,7,5,3,7,6,1,4,6,1,0,0,0,0,0,0,0,0,0,0,0,0,0,0,0,0],"split_type":[0,0,0,0,0,0,0,0,0,0,0,0,0,0,0,0,0,0,0,0,0,0,0,0,0,0,0,0,0,0,0],"sum_hessian":[2.93E3,2.383E3,5.47E2,7.1E2,1.673E3,3.02E2,2.45E2,1.06E2,6.04E2,1.28E3,3.93E2,4E0,2.98E2,2.24E2,2.1E1,1.7E1,8.9E1,4.17E2,1.87E2,1.9E2,1.09E3,1.68E2,2.25E2,3E0,1E0,8.2E1,2.16E2,2.2E2,4E0,1.1E1,1E1],"tree_param":{"num_deleted":"0","num_feature":"10","num_nodes":"31","size_leaf_vector":"1"}},{"base_weights":[7.312866E-2,-1.2879959E-1,4.8175183E-1,-3.2734805E-1,-1.0673235E-2,3.251418E-1,6.728538E-1,1.6E-1,-3.4428573E-1,2.0427112E-2,-2.4647887E-1,2.9227558E-1,6.27451E-1,5.027933E-1,7.905138E-1,1E-3,1E-2,-1.5652174E-2,-6.578171E-3,-1.105354E-3,2.1643287E-3,-7.741935E-3,4E-4,1.4E-3,6.9999998E-3,1.8E-2,4.5454544E-3,4.8387093E-3,1.2711864E-2,1.6311474E-2,2E-3],"categories":[],"categories_nodes":[],"categories_segments":[],"categories_sizes":[],"default_left":[0,0,0,0,0,0,0,0,0,0,0,0,0,0,0,0,0,0,0,0,0,0,0,0,0,0,0,0,0,0,0],"id":13,"left_children":[1,3,5,7,9,11,13,15,17,19,21,23,25,27,29,-1,-1,-1,-1,-1,-1,-1,-1,-1,-1,-1,-1,-1,-1,-1,-1],"loss_changes":[2.3926595E2,4.5520348E1,2.8482666E1,6.0313644E0,8.937405E0,5.072624E0,8.226547E0,9.0999997E-1,4.4607162E0,7.1628575E0,5.328724E0,6.121422E0,5.357931E0,6.047127E0,4.296417E0,0E0,0E0,0E0,0E0,0E0,0E0,0E0,0E0,0E0,0E0,0E0,0E0,0E0,0E0,0E0,0E0],"parents":[2147483647,0,0,1,1,2,2,3,3,4,4,5,5,6,6,7,7,8,8,9,9,10,10,11,11,12,12,13,13,14,14],"right_children":[2,4,6,8,10,12,14,16,18,20,22,24,26,28,30,-1,-1,-1,-1,-1,-1,-1,-1,-1,-1,-1,-1,-1,-1,-1,-1],"split_conditions":[3.25E0,1.6E0,4.6666665E0,1.5666667E1,8.372222E-1,7E0,8E0,1E0,1.6666666E1,3.550392E-1,2.1642857E1,1.8615385E1,8E-1,1.9285715E1,2.8333333E0,2.6979684E-3,3.0669165E-3,-1.6307412E-2,-1.5380447E-2,-1.2435913E-5,3.8053392E-4,-1.1730122E-3,1.9094943E-5,1.4134106E-2,1.5488591E-2,4.7960084E-2,1.4195785E-2,2.7381595E-2,4.6872735E-2,4.7917556E-2,4.3996386E-2],"split_indices":[2,2,2,6,8,0,7,7,6,5,6,6,4,6,4,0,0,0,0,0,0,0,0,0,0,0,0,0,0,0,0],"split_type":[0,0,0,0,0,0,0,0,0,0,0,0,0,0,0,0,0,0,0,0,0,0,0,0,0,0,0,0,0,0,0],"sum_hessian":[2.898E3,1.94E3,9.58E2,7.23E2,1.217E3,5.28E2,4.3E2,2.4E1,6.99E2,1.076E3,1.41E2,4.78E2,5E1,1.78E2,2.52E2,1.9E1,5E0,2.2E1,6.77E2,5.78E2,4.98E2,9.2E1,4.9E1,9.9E1,3.79E2,2.9E1,2.1E1,6.1E1,1.17E2,2.43E2,9E0],"tree_param":{"num_deleted":"0","num_feature":"10","num_nodes":"31","size_leaf_vector":"1"}},{"base_weights":[7.6581195E-2,-9.483961E-2,5.522581E-1,-3.2627118E-1,1.869806E-2,2.9482073E-1,6.742857E-1,-2.4470589E-1,-4.471831E-1,-1.0097087E-1,8.494624E-2,3.1836733E-1,-5.714286E-1,3.5365853E-1,7.31982E-1,7.142857E-3,-5.291262E-3,-1.1649485E-2,-3.076923E-3,-1.4705883E-3,-8.5E-3,-8.5653104E-5,3.4913793E-3,6.9827586E-3,-4.285714E-3,1E-2,-1.6666666E-2,4.0625E-3,1.6842104E-2,1.5011655E-2,3.75E-3],"categories":[],"categories_nodes":[],"categories_segments":[],"categories_sizes":[],"default_left":[0,0,0,0,0,0,0,0,0,0,0,0,0,0,0,0,0,0,0,0,0,0,0,0,0,0,0,0,0,0,0],"id":14,"left_children":[1,3,5,7,9,11,13,15,17,19,21,23,25,27,29,-1,-1,-1,-1,-1,-1,-1,-1,-1,-1,-1,-1,-1,-1,-1,-1],"loss_changes":[2.3855954E2,5.6526207E1,2.414743E1,6.873024E0,1.145639E1,5.3016357E0,9.45311E0,5.173683E0,1.1181179E1,4.548044E0,7.4378986E0,4.090376E0,2.3809521E0,5.8582115E0,4.356003E0,0E0,0E0,0E0,0E0,0E0,0E0,0E0,0E0,0E0,0E0,0E0,0E0,0E0,0E0,0E0,0E0],"parents":[2147483647,0,0,1,1,2,2,3,3,4,4,5,5,6,6,7,7,8,8,9,9,10,10,11,11,12,12,13,13,14,14],"right_children":[2,4,6,8,10,12,14,16,18,20,22,24,26,28,30,-1,-1,-1,-1,-1,-1,-1,-1,-1,-1,-1,-1,-1,-1,-1,-1],"split_conditions":[3.6666667E0,1.5384616E0,4.214286E0,4.4948974E-1,3.3333333E0,6.4611065E-1,5E0,1.5E1,1.3333334E0,8.933333E-1,3.740667E-1,9.199134E-1,2.5555556E0,6.2E0,1.9E1,2.6440094E-3,-1.5072837E-2,-1.5072837E-2,-1.5393262E-2,-1.21879575E-5,-1.9158602E-2,-7.2336197E-6,1.5928783E-2,1.5178818E-2,-6.4017437E-3,1.4408584E-2,-6.867003E-3,2.7345294E-2,2.6639052E-2,4.6959203E-2,8.878593E-3],"split_indices":[2,3,3,5,7,5,7,6,3,8,5,8,3,2,7,0,0,0,0,0,0,0,0,0,0,0,0,0,0,0,0],"split_type":[0,0,0,0,0,0,0,0,0,0,0,0,0,0,0,0,0,0,0,0,0,0,0,0,0,0,0,0,0,0,0],"sum_hessian":[2.924E3,2.15E3,7.74E2,7.07E2,1.443E3,2.5E2,5.24E2,4.24E2,2.83E2,5.14E2,9.29E2,2.44E2,6E0,8.1E1,4.43E2,1.3E1,4.11E2,1.93E2,9E1,4.75E2,3.9E1,4.66E2,4.63E2,2.31E2,1.3E1,1E0,5E0,6.3E1,1.8E1,4.28E2,1.5E1],"tree_param":{"num_deleted":"0","num_feature":"10","num_nodes":"31","size_leaf_vector":"1"}},{"base_weights":[6.673583E-2,-1.03303865E-1,5.577957E-1,-3.2655826E-1,1.345609E-2,2.733813E-1,6.221122E-1,-5.327869E-1,-2.8525123E-1,-5.510907E-2,1.2361623E-1,1.9512194E-1,8.235294E-1,4.8347107E-1,7.123288E-1,-4.1666664E-3,-1.2121213E-2,7.6923077E-4,-5.97973E-3,-5.398457E-4,-5.7446808E-3,1.8333333E-2,2.109228E-3,3.1304348E-3,1.3333334E-2,1.8666666E-2,-0E0,1.0041841E-2,-1.5E-2,-5E-3,1.4419889E-2],"categories":[],"categories_nodes":[],"categories_segments":[],"categories_sizes":[],"default_left":[0,0,0,0,0,0,0,0,0,0,0,0,0,0,0,0,0,0,0,0,0,0,0,0,0,0,0,0,0,0,0],"id":15,"left_children":[1,3,5,7,9,11,13,15,17,19,21,23,25,27,29,-1,-1,-1,-1,-1,-1,-1,-1,-1,-1,-1,-1,-1,-1,-1,-1],"loss_changes":[2.4153865E2,5.602275E1,1.3439575E1,6.134819E0,1.0671857E1,5.8238487E0,7.2352905E0,2.7741547E0,2.754856E0,5.676922E0,7.7068834E0,2.1344647E0,1.5372553E0,5.934929E0,3.2240906E0,0E0,0E0,0E0,0E0,0E0,0E0,0E0,0E0,0E0,0E0,0E0,0E0,0E0,0E0,0E0,0E0],"parents":[2147483647,0,0,1,1,2,2,3,3,4,4,5,5,6,6,7,7,8,8,9,9,10,10,11,11,12,12,13,13,14,14],"right_children":[2,4,6,8,10,12,14,16,18,20,22,24,26,28,30,-1,-1,-1,-1,-1,-1,-1,-1,-1,-1,-1,-1,-1,-1,-1,-1],"split_conditions":[3.8E0,1.6E0,5E0,1E0,2.75E0,6.3333335E0,4.6666665E0,4.4948974E-1,1.5666667E1,8.372222E-1,4.6136364E-1,8.933333E-1,8.333333E0,6.4611065E-1,5.423809E-1,-1.477138E-2,-1.477138E-2,2.5911282E-3,-1.477138E-2,-7.381439E-6,-1.0680151E-3,5.845097E-2,1.54587E-2,1.4325313E-2,2.4467964E-2,2.6106272E-2,7.681179E-3,2.7495055E-2,-6.7296647E-3,-9.213705E-3,4.602002E-2],"split_indices":[2,2,7,1,2,1,2,5,6,8,8,8,1,5,8,0,0,0,0,0,0,0,0,0,0,0,0,0,0,0,0],"split_type":[0,0,0,0,0,0,0,0,0,0,0,0,0,0,0,0,0,0,0,0,0,0,0,0,0,0,0,0,0,0,0],"sum_hessian":[2.891E3,2.148E3,7.43E2,7.37E2,1.411E3,1.38E2,6.05E2,1.21E2,6.16E2,8.7E2,5.41E2,1.22E2,1.6E1,2.41E2,3.64E2,2.3E1,9.8E1,2.5E1,5.91E2,7.77E2,9.3E1,1.1E1,5.3E2,1.14E2,8E0,1.4E1,2E0,2.38E2,3E0,3E0,3.61E2],"tree_param":{"num_deleted":"0","num_feature":"10","num_nodes":"31","size_leaf_vector":"1"}},{"base_weights":[6.6324785E-2,-1.1401777E-1,4.722222E-1,-3.4248555E-1,4.494382E-3,2.486631E-1,6.2998104E-1,-6.545454E-1,-3.1504703E-1,-2.6143791E-2,1.2830189E-1,1.4919356E-1,4.4094488E-1,4.723618E-1,7.234042E-1,-1.3703704E-2,1E-2,-7.516199E-3,-3.068182E-3,-1.8275861E-3,1.0162601E-3,-0E0,4.171779E-3,-4.102564E-3,4.285714E-3,1.1546391E-2,-0E0,7.777778E-3,1.6315788E-2,-5E-3,1.4662577E-2],"categories":[],"categories_nodes":[],"categories_segments":[],"categories_sizes":[],"default_left":[0,0,0,0,0,0,0,0,0,0,0,0,0,0,0,0,0,0,0,0,0,0,0,0,0,0,0,0,0,0,0],"id":16,"left_children":[1,3,5,7,9,11,13,15,17,19,21,23,25,27,29,-1,-1,-1,-1,-1,-1,-1,-1,-1,-1,-1,-1,-1,-1,-1,-1],"loss_changes":[2.1416554E2,5.485794E1,3.158493E1,5.719017E0,5.067324E0,7.087406E0,7.418518E0,2.2882156E0,6.208523E0,5.3814025E0,2.7297602E0,5.763722E0,7.636982E0,5.3874626E0,3.297577E0,0E0,0E0,0E0,0E0,0E0,0E0,0E0,0E0,0E0,0E0,0E0,0E0,0E0,0E0,0E0,0E0],"parents":[2147483647,0,0,1,1,2,2,3,3,4,4,5,5,6,6,7,7,8,8,9,9,10,10,11,11,12,12,13,13,14,14],"right_children":[2,4,6,8,10,12,14,16,18,20,22,24,26,28,30,-1,-1,-1,-1,-1,-1,-1,-1,-1,-1,-1,-1,-1,-1,-1,-1],"split_conditions":[3.3333333E0,1.5384616E0,4.2E0,-5.555556E-1,5.2380955E-1,2.2222222E-1,6.045177E-1,2.1333334E1,1.3333334E0,2.4285715E0,3.4205127E-1,2E0,4E0,6.071429E0,-1.8571428E0,-1.4475953E-2,5.5240463E-3,-1.4475953E-2,-1.47953555E-2,-2.1480084E-4,1.3344192E-2,5.226457E-3,1.8912392E-2,-1.4265728E-3,1.4588732E-2,3.1421226E-2,2.2840977E-3,2.6182707E-2,2.8307557E-2,-8.8059E-3,4.4075694E-2],"split_indices":[3,3,3,4,4,4,8,7,3,3,5,0,3,3,4,0,0,0,0,0,0,0,0,0,0,0,0,0,0,0,0],"split_type":[0,0,0,0,0,0,0,0,0,0,0,0,0,0,0,0,0,0,0,0,0,0,0,0,0,0,0,0,0,0,0],"sum_hessian":[2.924E3,2.025E3,8.99E2,6.91E2,1.334E3,3.73E2,5.26E2,5.4E1,6.37E2,1.07E3,2.64E2,2.47E2,1.26E2,1.98E2,3.28E2,5.3E1,1E0,4.62E2,1.75E2,5.79E2,4.91E2,1.02E2,1.62E2,3.8E1,2.09E2,9.6E1,3E1,1.61E2,3.7E1,3E0,3.25E2],"tree_param":{"num_deleted":"0","num_feature":"10","num_nodes":"31","size_leaf_vector":"1"}},{"base_weights":[4.4893764E-2,-1.5054888E-1,4.16501E-1,-3.1848854E-1,-4.4330776E-2,2.2572815E-1,5.478992E-1,5.970149E-2,-3.5555556E-1,1.3126492E-2,-1.875E-1,5.857143E-1,1.516035E-1,4.6618357E-1,7.307692E-1,-5.833333E-3,5E-3,-7.739837E-3,-6.5573765E-4,-7.4999996E-5,7.179487E-3,-4.8591546E-3,2.264151E-3,1.4285714E-3,1.4035087E-2,-1.2499999E-2,3.392857E-3,1.4814814E-2,7.964072E-3,1.5E-2,-1.3333334E-2],"categories":[],"categories_nodes":[],"categories_segments":[],"categories_sizes":[],"default_left":[0,0,0,0,0,0,0,0,0,0,0,0,0,0,0,0,0,0,0,0,0,0,0,0,0,0,0,0,0,0,0],"id":17,"left_children":[1,3,5,7,9,11,13,15,17,19,21,23,25,27,29,-1,-1,-1,-1,-1,-1,-1,-1,-1,-1,-1,-1,-1,-1,-1,-1],"loss_changes":[2.119909E2,3.4110413E1,2.5093933E1,1.0408852E1,9.6516905E0,1.0904949E1,8.550613E0,4.552861E0,6.8363037E0,4.8924994E0,5.630829E0,4.1273174E0,4.9112606E0,7.4320908E0,5.3910294E0,0E0,0E0,0E0,0E0,0E0,0E0,0E0,0E0,0E0,0E0,0E0,0E0,0E0,0E0,0E0,0E0],"parents":[2147483647,0,0,1,1,2,2,3,3,4,4,5,5,6,6,7,7,8,8,9,9,10,10,11,11,12,12,13,13,14,14],"right_children":[2,4,6,8,10,12,14,16,18,20,22,24,26,28,30,-1,-1,-1,-1,-1,-1,-1,-1,-1,-1,-1,-1,-1,-1,-1,-1],"split_conditions":[3.3333333E0,1.5E0,4.3333335E0,-1.1282052E0,1.6666667E-1,-2E-1,6.3333335E0,1E0,9.333333E0,5E0,2.3625E1,1.9285715E1,1E0,0E0,1.6333334E1,-1.710975E-2,2.4902439E-3,-1.4186434E-2,-1.41824335E-2,-2.646446E-6,1.9024853E-2,-1.2873363E-3,2.7092467E-3,5.3464365E-3,2.5887929E-2,-2.0686802E-2,1.4593539E-2,4.302531E-2,2.904458E-2,5.8102015E-2,-1.6093766E-2],"split_indices":[1,1,1,4,4,4,1,0,7,0,6,6,0,4,7,0,0,0,0,0,0,0,0,0,0,0,0,0,0,0,0],"split_type":[0,0,0,0,0,0,0,0,0,0,0,0,0,0,0,0,0,0,0,0,0,0,0,0,0,0,0,0,0,0,0],"sum_hessian":[2.917E3,1.912E3,1.005E3,7.4E2,1.172E3,4.11E2,5.94E2,6.6E1,6.74E2,8.37E2,3.35E2,6.9E1,3.42E2,4.13E2,1.81E2,2.3E1,4.3E1,6.14E2,6E1,7.99E2,3.8E1,2.83E2,5.2E1,1.3E1,5.6E1,7E0,3.35E2,8E1,3.33E2,1.79E2,2E0],"tree_param":{"num_deleted":"0","num_feature":"10","num_nodes":"31","size_leaf_vector":"1"}},{"base_weights":[5.5555556E-2,-1.4611872E-1,4.838362E-1,-3.6167148E-1,-2.8951487E-2,2.905569E-1,6.375969E-1,4.090909E-1,-3.8632986E-1,-4.2037185E-2,3.5714287E-1,3.0295566E-1,-3.75E-1,4.8920864E-1,6.904762E-1,9.523809E-3,-1E-2,-8.842105E-3,-5.0251256E-3,-6.0352054E-4,-7.111111E-3,-1E-2,9.72973E-3,-1.6E-3,6.5445025E-3,1.3333334E-2,-1.6666666E-2,6.756757E-3,1.3030302E-2,1.0227272E-2,1.484536E-2],"categories":[],"categories_nodes":[],"categories_segments":[],"categories_sizes":[],"default_left":[0,0,0,0,0,0,0,0,0,0,0,0,0,0,0,0,0,0,0,0,0,0,0,0,0,0,0,0,0,0,0],"id":18,"left_children":[1,3,5,7,9,11,13,15,17,19,21,23,25,27,29,-1,-1,-1,-1,-1,-1,-1,-1,-1,-1,-1,-1,-1,-1,-1,-1],"loss_changes":[2.503802E2,4.9768555E1,2.7393738E1,1.3348038E1,6.4718714E0,3.521717E0,3.71109E0,1.5800865E0,4.959152E0,4.5892925E0,4.899614E0,3.7995949E0,4.375E0,3.194912E0,3.1269836E0,0E0,0E0,0E0,0E0,0E0,0E0,0E0,0E0,0E0,0E0,0E0,0E0,0E0,0E0,0E0,0E0],"parents":[2147483647,0,0,1,1,2,2,3,3,4,4,5,5,6,6,7,7,8,8,9,9,10,10,11,11,12,12,13,13,14,14],"right_children":[2,4,6,8,10,12,14,16,18,20,22,24,26,28,30,-1,-1,-1,-1,-1,-1,-1,-1,-1,-1,-1,-1,-1,-1,-1,-1],"split_conditions":[3.3333333E0,1.5714285E0,4.214286E0,1.5666667E1,3.5E0,6.4611065E-1,1.9357143E1,1.5151516E-1,1.3333334E0,9.3333334E-1,1.8166666E1,2.7692308E0,2.5714285E0,8E0,4.6666665E0,4.0937234E-3,-3.525336E-2,-1.3902707E-2,-1.4231465E-2,-4.6761033E-5,-1.8666046E-2,-2.4956607E-3,3.5078373E-2,-5.7614394E-3,1.4239573E-2,2.2543486E-2,-7.8043886E-3,2.4050865E-2,5.693997E-2,2.6192522E-2,4.4870872E-2],"split_indices":[2,3,3,6,3,5,6,4,3,8,6,3,3,7,3,0,0,0,0,0,0,0,0,0,0,0,0,0,0,0,0],"split_type":[0,0,0,0,0,0,0,0,0,0,0,0,0,0,0,0,0,0,0,0,0,0,0,0,0,0,0,0,0,0,0],"sum_hessian":[2.897E3,1.97E3,9.27E2,6.93E2,1.277E3,4.12E2,5.15E2,2.1E1,6.72E2,1.236E3,4.1E1,4.05E2,7E0,1.38E2,3.77E2,2E1,1E0,4.74E2,1.98E2,1.192E3,4.4E1,5E0,3.6E1,2.4E1,3.81E2,2E0,5E0,7.3E1,6.5E1,8.7E1,2.9E2],"tree_param":{"num_deleted":"0","num_feature":"10","num_nodes":"31","size_leaf_vector":"1"}},{"base_weights":[4.178177E-2,-1.48773E-1,4.378321E-1,-4.7227925E-1,-4.1496597E-2,2.200489E-1,6.041276E-1,-3.5341364E-1,-5.9414226E-1,-1.1432927E-1,1.7177913E-2,8.290155E-2,3.4101382E-1,3.3783785E-1,6.456522E-1,2.352941E-3,-7.7253217E-3,-1.31791895E-2,-8.358209E-3,-3.3828998E-3,2.6890757E-3,7.2072074E-4,-7.179487E-3,1.1702128E-3,1.6666666E-2,-2.3076923E-3,8.020833E-3,4.333333E-3,1.6E-2,1.3126386E-2,2E-3],"categories":[],"categories_nodes":[],"categories_segments":[],"categories_sizes":[],"default_left":[0,0,0,0,0,0,0,0,0,0,0,0,0,0,0,0,0,0,0,0,0,0,0,0,0,0,0,0,0,0,0],"id":19,"left_children":[1,3,5,7,9,11,13,15,17,19,21,23,25,27,29,-1,-1,-1,-1,-1,-1,-1,-1,-1,-1,-1,-1,-1,-1,-1,-1],"loss_changes":[2.1862419E2,6.786258E1,3.3946655E1,6.8443756E0,6.283894E0,6.7570477E0,5.6755676E0,3.8988438E0,2.4546738E0,8.968758E0,5.794159E0,3.4838588E0,5.9913387E0,3.9707212E0,2.6118164E0,0E0,0E0,0E0,0E0,0E0,0E0,0E0,0E0,0E0,0E0,0E0,0E0,0E0,0E0,0E0,0E0],"parents":[2147483647,0,0,1,1,2,2,3,3,4,4,5,5,6,6,7,7,8,8,9,9,10,10,11,11,12,12,13,13,14,14],"right_children":[2,4,6,8,10,12,14,16,18,20,22,24,26,28,30,-1,-1,-1,-1,-1,-1,-1,-1,-1,-1,-1,-1,-1,-1,-1,-1],"split_conditions":[3.25E0,1.3333334E0,4.2E0,1.7316213E-1,2.0769231E0,2.08E1,4.3333335E0,1.5666667E1,2E0,2.34E1,9.199134E-1,9.6E-1,2E0,6.2E0,9.199134E-1,3.0269872E-3,-1.3624653E-2,-1.3624653E-2,-1.3624653E-2,-1.3576765E-2,1.446011E-3,4.405844E-4,-1.6378688E-3,1.0889873E-2,1.3316263E-2,-5.7315016E-3,2.9850768E-2,2.6900304E-2,2.3569847E-2,4.0997285E-2,3.5801172E-2],"split_indices":[2,3,3,5,3,6,7,6,0,6,8,8,0,2,8,0,0,0,0,0,0,0,0,0,0,0,0,0,0,0,0],"split_type":[0,0,0,0,0,0,0,0,0,0,0,0,0,0,0,0,0,0,0,0,0,0,0,0,0,0,0,0,0,0,0],"sum_hessian":[2.895E3,1.955E3,9.4E2,4.86E2,1.469E3,4.08E2,5.32E2,2.48E2,2.38E2,6.55E2,8.14E2,1.92E2,2.16E2,7.3E1,4.59E2,1.6E1,2.32E2,1.72E2,6.6E1,5.37E2,1.18E2,7.76E2,3.8E1,1.87E2,5E0,2.5E1,1.91E2,5.9E1,1.4E1,4.5E2,9E0],"tree_param":{"num_deleted":"0","num_feature":"10","num_nodes":"31","size_leaf_vector":"1"}},{"base_weights":[5.6623198E-2,-1.4117648E-1,4.59375E-1,-3.4112793E-1,-2.278275E-2,2.7586207E-1,5.770548E-1,1.7391305E-1,-3.5744682E-1,4.83559E-3,-1.6836734E-1,2.2321428E-1,6.904762E-1,4.9469966E-1,6.523179E-1,-1E-2,4.5454544E-3,-1.195122E-2,-6.50641E-3,1.4003044E-3,-2.1693122E-3,-6.412213E-3,2.7272727E-3,8.633093E-3,1.5151516E-3,-0E0,1.5263158E-2,8.906882E-3,1.6216217E-2,-5E-3,1.3244147E-2],"categories":[],"categories_nodes":[],"categories_segments":[],"categories_sizes":[],"default_left":[0,0,0,0,0,0,0,0,0,0,0,0,0,0,0,0,0,0,0,0,0,0,0,0,0,0,0,0,0,0,0],"id":20,"left_children":[1,3,5,7,9,11,13,15,17,19,21,23,25,27,29,-1,-1,-1,-1,-1,-1,-1,-1,-1,-1,-1,-1,-1,-1,-1,-1],"loss_changes":[2.3220625E2,4.6272934E1,2.0572739E1,6.172531E0,4.9423833E0,8.075226E0,3.297104E0,9.4071144E-1,5.24395E0,7.6436124E0,9.136799E0,1.0294573E1,2.107769E0,4.0542297E0,2.8604279E0,0E0,0E0,0E0,0E0,0E0,0E0,0E0,0E0,0E0,0E0,0E0,0E0,0E0,0E0,0E0,0E0],"parents":[2147483647,0,0,1,1,2,2,3,3,4,4,5,5,6,6,7,7,8,8,9,9,10,10,11,11,12,12,13,13,14,14],"right_children":[2,4,6,8,10,12,14,16,18,20,22,24,26,28,30,-1,-1,-1,-1,-1,-1,-1,-1,-1,-1,-1,-1,-1,-1,-1,-1],"split_conditions":[3.25E0,1.6E0,4.3333335E0,1.5666667E1,8.333333E-1,6E0,2.090909E1,-5.1282052E-2,1E0,2.2E1,2.209091E1,-2.2222222E-1,1.8058823E1,7E0,3.5E0,-1.4714055E-2,2.9701376E-3,-1.335216E-2,-1.335216E-2,2.7315615E-4,-6.162214E-4,-1.99841E-3,2.944212E-3,2.1326024E-2,1.169835E-2,3.6934018E-3,3.063381E-2,2.8802527E-2,5.8227997E-2,-9.566584E-3,4.0745668E-2],"split_indices":[2,2,1,6,8,0,6,4,2,6,6,4,6,2,2,0,0,0,0,0,0,0,0,0,0,0,0,0,0,0,0],"split_type":[0,0,0,0,0,0,0,0,0,0,0,0,0,0,0,0,0,0,0,0,0,0,0,0,0,0,0,0,0,0,0],"sum_hessian":[2.913E3,1.954E3,9.59E2,7.26E2,1.228E3,3.76E2,5.83E2,2.2E1,7.04E2,1.033E3,1.95E2,3.35E2,4.1E1,2.82E2,3.01E2,1E0,2.1E1,8.1E1,6.23E2,6.56E2,3.77E2,1.3E2,6.5E1,1.38E2,1.97E2,4E0,3.7E1,2.46E2,3.6E1,3E0,2.98E2],"tree_param":{"num_deleted":"0","num_feature":"10","num_nodes":"31","size_leaf_vector":"1"}},{"base_weights":[5.96282E-2,-1.2571429E-1,4.4444445E-1,-4.011194E-1,-1.942446E-2,2.1374045E-1,6.1308414E-1,1.7391305E-1,-4.2607003E-1,-2.2068965E-1,4.0128413E-3,1.8108109E-1,7.083333E-1,6.6843504E-1,4.779874E-1,4.5454544E-3,-1E-2,-6.821192E-3,-1.0892019E-2,-5.735294E-3,1.39999995E-2,-3.539823E-3,4.409171E-4,3.1073445E-3,1.4117647E-2,1.5652174E-2,-1E-2,-0E0,1.3584905E-2,-1.1428571E-2,1.0457517E-2],"categories":[],"categories_nodes":[],"categories_segments":[],"categories_sizes":[],"default_left":[0,0,0,0,0,0,0,0,0,0,0,0,0,0,0,0,0,0,0,0,0,0,0,0,0,0,0,0,0,0,0],"id":21,"left_children":[1,3,5,7,9,11,13,15,17,19,21,23,25,27,29,-1,-1,-1,-1,-1,-1,-1,-1,-1,-1,-1,-1,-1,-1,-1,-1],"loss_changes":[2.0339717E2,5.634227E1,3.593466E1,7.764328E0,6.557673E0,6.2199E0,3.681076E0,9.4071144E-1,4.9935074E0,9.021755E0,4.070905E0,4.883353E0,2.54529E0,2.7241974E0,7.7887344E0,0E0,0E0,0E0,0E0,0E0,0E0,0E0,0E0,0E0,0E0,0E0,0E0,0E0,0E0,0E0,0E0],"parents":[2147483647,0,0,1,1,2,2,3,3,4,4,5,5,6,6,7,7,8,8,9,9,10,10,11,11,12,12,13,13,14,14],"right_children":[2,4,6,8,10,12,14,16,18,20,22,24,26,28,30,-1,-1,-1,-1,-1,-1,-1,-1,-1,-1,-1,-1,-1,-1,-1,-1],"split_conditions":[3.3333333E0,1.3636364E0,4.2E0,1.6E1,1E0,4.6666665E0,2.21875E1,1.5E0,4.0269974E-1,2.1666666E1,1.7333334E1,8E0,1E1,3E0,2.2285715E1,2.9107356E-3,-3.4335203E-2,-1.3085117E-2,-1.3085117E-2,-1.622804E-2,2.0099979E-2,-2.849698E-3,2.5955914E-4,1.1625752E-2,3.9844766E-2,3.6430772E-2,-5.0321653E-2,-4.741833E-3,3.948186E-2,-1.925855E-2,4.044029E-2],"split_indices":[2,3,3,6,0,2,6,1,5,7,6,0,0,1,6,0,0,0,0,0,0,0,0,0,0,0,0,0,0,0,0],"split_type":[0,0,0,0,0,0,0,0,0,0,0,0,0,0,0,0,0,0,0,0,0,0,0,0,0,0,0,0,0,0,0],"sum_hessian":[2.85E3,1.924E3,9.26E2,5.35E2,1.389E3,3.92E2,5.34E2,2.2E1,5.13E2,1.44E2,1.245E3,3.69E2,2.3E1,3.76E2,1.58E2,2.1E1,1E0,3.01E2,2.12E2,1.35E2,9E0,1.12E2,1.133E3,3.53E2,1.6E1,2.2E1,1E0,6E0,3.7E2,6E0,1.52E2],"tree_param":{"num_deleted":"0","num_feature":"10","num_nodes":"31","size_leaf_vector":"1"}},{"base_weights":[5.4359335E-2,-1.2670873E-1,4.2381975E-1,-4.1428572E-1,-2.6893135E-2,2.1791768E-1,5.8653843E-1,1.3636364E-1,-4.392324E-1,-1.5444015E-1,1.7316018E-3,7.3275864E-2,4.010989E-1,5.3268766E-1,7.87037E-1,1E-3,1.3333334E-2,-7.898734E-3,-1.3333334E-2,-5.0537633E-3,1.8918919E-3,1.3826367E-3,-1.5355804E-3,-1.3846154E-3,5.0485437E-3,4.4186045E-3,1.113402E-2,4.2307694E-3,1.1546961E-2,1.6380953E-2,-5E-3],"categories":[],"categories_nodes":[],"categories_segments":[],"categories_sizes":[],"default_left":[0,0,0,0,0,0,0,0,0,0,0,0,0,0,0,0,0,0,0,0,0,0,0,0,0,0,0,0,0,0,0],"id":22,"left_children":[1,3,5,7,9,11,13,15,17,19,21,23,25,27,29,-1,-1,-1,-1,-1,-1,-1,-1,-1,-1,-1,-1,-1,-1,-1,-1],"loss_changes":[1.8957426E2,5.4585136E1,3.1098022E1,6.790962E0,5.15913E0,1.0913319E1,5.1952057E0,9.7424245E-1,4.461586E0,6.3608994E0,6.117146E0,5.9404945E0,4.979309E0,5.801384E0,3.7899475E0,0E0,0E0,0E0,0E0,0E0,0E0,0E0,0E0,0E0,0E0,0E0,0E0,0E0,0E0,0E0,0E0],"parents":[2147483647,0,0,1,1,2,2,3,3,4,4,5,5,6,6,7,7,8,8,9,9,10,10,11,11,12,12,13,13,14,14],"right_children":[2,4,6,8,10,12,14,16,18,20,22,24,26,28,30,-1,-1,-1,-1,-1,-1,-1,-1,-1,-1,-1,-1,-1,-1,-1,-1],"split_conditions":[3.25E0,1.3333334E0,4.2E0,1.5666667E1,1.6666666E0,2.6666668E-1,6.071429E0,1E0,6.880952E-1,2.25E1,6.076757E-1,2.1222221E1,2.075E1,1E0,8.666667E-1,2.852521E-3,3.1961321E-3,-1.2823414E-2,-1.3419361E-2,-1.3383567E-2,2.0283912E-3,3.2925367E-4,-4.037571E-4,-5.6520747E-3,1.257153E-2,1.0859089E-2,2.8837135E-2,2.4738578E-2,3.794062E-2,5.3608473E-2,-6.1430787E-3],"split_indices":[2,3,3,6,3,4,3,7,8,6,8,6,6,7,8,0,0,0,0,0,0,0,0,0,0,0,0,0,0,0,0],"split_type":[0,0,0,0,0,0,0,0,0,0,0,0,0,0,0,0,0,0,0,0,0,0,0,0,0,0,0,0,0,0,0],"sum_hessian":[2.832E3,1.901E3,9.31E2,4.89E2,1.412E3,4.12E2,5.19E2,2.1E1,4.68E2,2.58E2,1.154E3,2.31E2,1.81E2,4.12E2,1.07E2,1.9E1,2E0,3.94E2,7.4E1,1.85E2,7.3E1,6.21E2,5.33E2,1.29E2,1.02E2,8.5E1,9.6E1,5.1E1,3.61E2,1.04E2,3E0],"tree_param":{"num_deleted":"0","num_feature":"10","num_nodes":"31","size_leaf_vector":"1"}},{"base_weights":[5.5153396E-2,-1.1550308E-1,4.0356395E-1,-3.5328466E-1,1.3449367E-2,2.2384427E-1,5.3860295E-1,-4.1598362E-1,-1.969697E-1,5.1948052E-2,-1.3257575E-1,1.852861E-1,5.3333336E-1,4.1379312E-1,6.111111E-1,-5.8426964E-3,-1.1261261E-2,-1.2499999E-2,-1.7610062E-3,7.991803E-4,1E-2,1.9148936E-3,-5.146199E-3,3.1123918E-3,1.3333334E-2,1.20930225E-2,-1.3333334E-2,1.7E-2,7.2826087E-3,1.1263537E-2,1.6060606E-2],"categories":[],"categories_nodes":[],"categories_segments":[],"categories_sizes":[],"default_left":[0,0,0,0,0,0,0,0,0,0,0,0,0,0,0,0,0,0,0,0,0,0,0,0,0,0,0,0,0,0,0],"id":23,"left_children":[1,3,5,7,9,11,13,15,17,19,21,23,25,27,29,-1,-1,-1,-1,-1,-1,-1,-1,-1,-1,-1,-1,-1,-1,-1,-1],"loss_changes":[1.7253577E2,5.9735332E1,2.3032227E1,6.6315994E0,7.112811E0,4.8057823E0,4.670166E0,8.724724E0,9.175886E0,5.3571024E0,7.5431876E0,5.1373367E0,4.254264E0,4.0881195E0,2.6939774E0,0E0,0E0,0E0,0E0,0E0,0E0,0E0,0E0,0E0,0E0,0E0,0E0,0E0,0E0,0E0,0E0],"parents":[2147483647,0,0,1,1,2,2,3,3,4,4,5,5,6,6,7,7,8,8,9,9,10,10,11,11,12,12,13,13,14,14],"right_children":[2,4,6,8,10,12,14,16,18,20,22,24,26,28,30,-1,-1,-1,-1,-1,-1,-1,-1,-1,-1,-1,-1,-1,-1,-1,-1],"split_conditions":[3.25E0,1.5384616E0,4.2E0,1.3333334E0,7.778571E-1,7E0,7.3333335E0,3.6602542E-1,-4E-1,6.4611065E-1,-2.9166666E-1,4.6666665E0,7E0,4.2E0,7E0,-1.25669455E-2,-1.25669455E-2,-1.3468654E-2,-1.286314E-2,2.6712893E-4,2.6878284E-3,1.6503839E-2,-1.1797905E-3,1.1148743E-2,5.588893E-2,2.9029991E-2,-5.0272416E-2,2.6108617E-2,2.1694098E-2,3.747956E-2,5.5611476E-2],"split_indices":[2,3,3,3,8,0,7,5,4,5,4,2,1,2,2,0,0,0,0,0,0,0,0,0,0,0,0,0,0,0,0],"split_type":[0,0,0,0,0,0,0,0,0,0,0,0,0,0,0,0,0,0,0,0,0,0,0,0,0,0,0,0,0,0,0],"sum_hessian":[2.9E3,1.947E3,9.53E2,6.84E2,1.263E3,4.1E2,5.43E2,4.87E2,1.97E2,1E3,2.63E2,3.66E2,4.4E1,2.02E2,3.41E2,2.66E2,2.21E2,3.9E1,1.58E2,9.75E2,2.5E1,9.3E1,1.7E2,3.46E2,2E1,4.2E1,2E0,1.9E1,1.83E2,2.76E2,6.5E1],"tree_param":{"num_deleted":"0","num_feature":"10","num_nodes":"31","size_leaf_vector":"1"}},{"base_weights":[5.1122624E-2,-1.3237558E-1,4.287223E-1,-3.5595778E-1,-1.7094018E-2,3.5092723E-1,6.4777327E-1,1.25E-1,-3.734375E-1,-2.4409449E-2,5E-1,2.431611E-1,4.4504023E-1,4.964539E-1,8.411215E-1,3.478261E-3,-1E-2,-8.7417215E-3,-4.361702E-3,1.3289036E-4,-2.0108696E-3,-3.3333334E-3,1.5384615E-2,2.7884613E-3,8.360656E-3,1.5609755E-2,8.048048E-3,1.2321427E-2,6.6666666E-4,1.7475728E-2,-0E0],"categories":[],"categories_nodes":[],"categories_segments":[],"categories_sizes":[],"default_left":[0,0,0,0,0,0,0,0,0,0,0,0,0,0,0,0,0,0,0,0,0,0,0,0,0,0,0,0,0,0,0],"id":24,"left_children":[1,3,5,7,9,11,13,15,17,19,21,23,25,27,29,-1,-1,-1,-1,-1,-1,-1,-1,-1,-1,-1,-1,-1,-1,-1,-1],"loss_changes":[2.00648E2,5.0229202E1,1.59105835E1,5.620529E0,4.8806243E0,7.001465E0,6.8089905E0,8.2065225E-1,6.232971E0,3.003283E0,3.358974E0,5.9100533E0,5.020851E0,7.790489E0,2.9398422E0,0E0,0E0,0E0,0E0,0E0,0E0,0E0,0E0,0E0,0E0,0E0,0E0,0E0,0E0,0E0,0E0],"parents":[2147483647,0,0,1,1,2,2,3,3,4,4,5,5,6,6,7,7,8,8,9,9,10,10,11,11,12,12,13,13,14,14],"right_children":[2,4,6,8,10,12,14,16,18,20,22,24,26,28,30,-1,-1,-1,-1,-1,-1,-1,-1,-1,-1,-1,-1,-1,-1,-1,-1],"split_conditions":[3.25E0,1.5384616E0,5.285714E0,1.5666667E1,6.90983E-1,2.075E1,6.6666665E0,1.6666666E0,1.3333334E0,1.6666667E-1,1.6E0,4.3333335E0,2.1076923E1,2.3166666E1,9E0,3.046808E-3,-3.3461083E-2,-1.2315607E-2,-1.2867384E-2,2.4473666E-5,-5.822277E-4,-1.6468013E-2,3.7649374E-2,1.07766725E-2,3.594416E-2,3.0932028E-2,2.64496E-2,3.6846783E-2,1.5691305E-2,5.1786713E-2,1.381135E-4],"split_indices":[2,3,3,6,5,6,1,1,3,4,3,3,6,6,2,0,0,0,0,0,0,0,0,0,0,0,0,0,0,0,0],"split_type":[0,0,0,0,0,0,0,0,0,0,0,0,0,0,0,0,0,0,0,0,0,0,0,0,0,0,0,0,0,0,0],"sum_hessian":[2.894E3,1.948E3,9.46E2,6.62E2,1.286E3,7E2,2.46E2,2.3E1,6.39E2,1.269E3,1.7E1,3.28E2,3.72E2,1.4E2,1.06E2,2.2E1,1E0,4.52E2,1.87E2,9.02E2,3.67E2,5E0,1.2E1,2.07E2,1.21E2,4E1,3.32E2,1.11E2,2.9E1,1.02E2,4E0],"tree_param":{"num_deleted":"0","num_feature":"10","num_nodes":"31","size_leaf_vector":"1"}},{"base_weights":[4.927636E-2,-1.1037302E-1,3.794926E-1,-3.3076924E-1,-7.64526E-4,3.1895426E-1,6.318681E-1,6.25E-1,-3.421462E-1,4.75E-1,-1.576044E-2,2.7121213E-1,6.132075E-1,1.3636364E-1,6.956522E-1,1.7142856E-2,-1E-2,-7.0551177E-3,8.888889E-3,5.217391E-3,1.4444443E-2,-3.286771E-5,-6.7924527E-3,8.79518E-3,4.282828E-3,1.2815533E-2,-5E-3,6.315789E-3,-1.5E-2,8.484849E-3,1.5193799E-2],"categories":[],"categories_nodes":[],"categories_segments":[],"categories_sizes":[],"default_left":[0,0,0,0,0,0,0,0,0,0,0,0,0,0,0,0,0,0,0,0,0,0,0,0,0,0,0,0,0,0,0],"id":25,"left_children":[1,3,5,7,9,11,13,15,17,19,21,23,25,27,29,-1,-1,-1,-1,-1,-1,-1,-1,-1,-1,-1,-1,-1,-1,-1,-1],"loss_changes":[1.5303189E2,4.7275578E1,1.4251831E1,7.2817764E0,9.339443E0,1.058062E1,5.657295E0,2.517857E0,5.5229416E0,1.9291067E0,5.8012853E0,6.254429E0,2.6827736E0,3.7356458E0,2.4759674E0,0E0,0E0,0E0,0E0,0E0,0E0,0E0,0E0,0E0,0E0,0E0,0E0,0E0,0E0,0E0,0E0],"parents":[2147483647,0,0,1,1,2,2,3,3,4,4,5,5,6,6,7,7,8,8,9,9,10,10,11,11,12,12,13,13,14,14],"right_children":[2,4,6,8,10,12,14,16,18,20,22,24,26,28,30,-1,-1,-1,-1,-1,-1,-1,-1,-1,-1,-1,-1,-1,-1,-1,-1],"split_conditions":[3.25E0,1.5E0,6.3333335E0,-1.7380953E0,-1.25E0,7E0,8E0,5.4446656E-1,2.3333334E1,3.4833148E-1,2.1333334E1,-2.5E-1,6.25E0,7E0,5.6666665E0,2.1398384E-2,-1.7950902E-2,-1.2069294E-2,6.994346E-3,1.8516108E-2,3.9666995E-2,-1.399517E-6,-1.7151069E-3,3.0284543E-2,1.3529643E-2,3.805255E-2,-2.3031568E-2,2.0826852E-2,-4.6582803E-2,3.3800066E-2,5.1073924E-2],"split_indices":[2,2,1,4,4,0,7,5,7,5,7,4,2,7,2,0,0,0,0,0,0,0,0,0,0,0,0,0,0,0,0],"split_type":[0,0,0,0,0,0,0,0,0,0,0,0,0,0,0,0,0,0,0,0,0,0,0,0,0,0,0,0,0,0,0],"sum_hessian":[2.901E3,1.956E3,9.45E2,6.49E2,1.307E3,7.64E2,1.81E2,7E0,6.42E2,3.9E1,1.268E3,6.59E2,1.05E2,2.1E1,1.6E2,6E0,1E0,6.34E2,8E0,2.2E1,1.7E1,1.216E3,5.2E1,1.65E2,4.94E2,1.02E2,3E0,1.8E1,3E0,3.2E1,1.28E2],"tree_param":{"num_deleted":"0","num_feature":"10","num_nodes":"31","size_leaf_vector":"1"}},{"base_weights":[2.3296244E-2,-1.5043792E-1,3.83547E-1,-3.8184437E-1,-2.1634616E-2,2.4654378E-1,5.00994E-1,-6.1764705E-1,-3.406408E-1,1.4098691E-2,-1.6015625E-1,2.8109452E-1,-1.8181819E-1,-1.3333334E-2,5.06986E-1,-1.4285714E-3,-1.3932584E-2,-8.019093E-3,-3.8857143E-3,-1.5730337E-4,4.0384615E-3,8.6021505E-4,-5.4878048E-3,3.5059762E-3,9.078947E-3,-7.407407E-3,1.1428571E-2,6.4E-3,1.0772834E-2],"categories":[],"categories_nodes":[],"categories_segments":[],"categories_sizes":[],"default_left":[0,0,0,0,0,0,0,0,0,0,0,0,0,0,0,0,0,0,0,0,0,0,0,0,0,0,0,0,0],"id":26,"left_children":[1,3,5,7,9,11,13,15,17,19,21,23,25,-1,27,-1,-1,-1,-1,-1,-1,-1,-1,-1,-1,-1,-1,-1,-1],"loss_changes":[1.800604E2,5.7845024E1,1.4937302E1,6.532448E0,6.179653E0,6.474407E0,3.857277E0,4.3506737E0,5.1566544E0,4.098059E0,5.9531975E0,7.2718334E0,4.898509E0,0E0,2.7931366E0,0E0,0E0,0E0,0E0,0E0,0E0,0E0,0E0,0E0,0E0,0E0,0E0,0E0,0E0],"parents":[2147483647,0,0,1,1,2,2,3,3,4,4,5,5,6,6,7,7,8,8,9,9,10,10,11,11,12,12,14,14],"right_children":[2,4,6,8,10,12,14,16,18,20,22,24,26,-1,28,-1,-1,-1,-1,-1,-1,-1,-1,-1,-1,-1,-1,-1,-1],"split_conditions":[3.25E0,1.5384616E0,5E0,1E0,7.778571E-1,1.7666666E1,3.3333333E0,3.7833393E-1,1.3333334E0,7.3333335E-1,-2.9166666E-1,4.2E0,1.2E0,-6.571572E-3,4.3333335E0,-1.18279075E-2,-1.18279075E-2,-1.18279075E-2,-1.2372017E-2,-1.9025802E-5,1.8537112E-2,1.4154315E-4,-1.300621E-3,1.1260962E-2,3.4421418E-2,-8.027861E-3,3.853716E-2,2.2735046E-2,3.666576E-2],"split_indices":[2,3,0,1,8,7,2,5,3,4,4,3,4,0,7,0,0,0,0,0,0,0,0,0,0,0,0,0,0],"split_type":[0,0,0,0,0,0,0,0,0,0,0,0,0,0,0,0,0,0,0,0,0,0,0,0,0,0,0,0,0],"sum_hessian":[2.875E3,1.94E3,9.35E2,6.93E2,1.247E3,4.33E2,5.02E2,1.01E2,5.92E2,9.92E2,2.55E2,4.01E2,3.2E1,2E0,5E2,1.3E1,8.8E1,4.18E2,1.74E2,8.89E2,1.03E2,9.2E1,1.63E2,2.5E2,1.51E2,2.6E1,6E0,7.4E1,4.26E2],"tree_param":{"num_deleted":"0","num_feature":"10","num_nodes":"29","size_leaf_vector":"1"}},{"base_weights":[2.8899722E-2,-1.2666667E-1,3.575298E-1,-3.5171387E-1,-8.59375E-3,2.4063116E-1,4.9880096E-1,2.9166666E-1,-3.75E-1,-1.924619E-2,3.8235295E-1,1.9955654E-1,5.614035E-1,2.519685E-1,6.04811E-1,7.6190475E-3,-5E-3,-8.701298E-3,-4.4919783E-3,8.421052E-3,-5.2074855E-4,-0E0,1.1818181E-2,4.496487E-3,-4.7999998E-3,-1.3333334E-2,1.2363636E-2,6.2711863E-3,-1E-2,-1E-2,1.2517482E-2],"categories":[],"categories_nodes":[],"categories_segments":[],"categories_sizes":[],"default_left":[0,0,0,0,0,0,0,0,0,0,0,0,0,0,0,0,0,0,0,0,0,0,0,0,0,0,0,0,0,0,0],"id":27,"left_children":[1,3,5,7,9,11,13,15,17,19,21,23,25,27,29,-1,-1,-1,-1,-1,-1,-1,-1,-1,-1,-1,-1,-1,-1,-1,-1],"loss_changes":[1.4687282E2,5.1812332E1,1.5122772E1,1.0162193E1,5.337966E0,6.568001E0,1.0759132E1,1.2559524E0,5.7562103E0,3.73971E0,2.7112298E0,5.0630493E0,4.3866043E0,6.038703E0,7.084732E0,0E0,0E0,0E0,0E0,0E0,0E0,0E0,0E0,0E0,0E0,0E0,0E0,0E0,0E0,0E0,0E0],"parents":[2147483647,0,0,1,1,2,2,3,3,4,4,5,5,6,6,7,7,8,8,9,9,10,10,11,11,12,12,13,13,14,14],"right_children":[2,4,6,8,10,12,14,16,18,20,22,24,26,28,30,-1,-1,-1,-1,-1,-1,-1,-1,-1,-1,-1,-1,-1,-1,-1,-1],"split_conditions":[3.3333333E0,1.5384616E0,4.6666665E0,1.5666667E1,1.4545455E0,7E0,1.7316213E-1,2E0,1.3333334E0,-1.7380953E0,2.4444444E0,8.933333E-1,-5.555556E-1,1.1E1,-1.8571428E0,4.4135414E-3,-1.3409955E-2,-1.1591349E-2,-1.2121291E-2,1.6494222E-2,-1.4381646E-4,4.506967E-3,2.8273463E-2,1.3033833E-2,-2.356162E-3,-2.2872955E-2,2.528964E-2,2.2280345E-2,-1.9225148E-2,-8.3658216E-4,4.8623968E-2],"split_indices":[3,3,3,6,4,0,5,7,3,4,3,8,4,7,4,0,0,0,0,0,0,0,0,0,0,0,0,0,0,0,0],"split_type":[0,0,0,0,0,0,0,0,0,0,0,0,0,0,0,0,0,0,0,0,0,0,0,0,0,0,0,0,0,0,0],"sum_hessian":[2.871E3,1.949E3,9.22E2,6.7E2,1.279E3,5.06E2,4.16E2,2.3E1,6.47E2,1.246E3,3.3E1,4.5E2,5.6E1,1.26E2,2.9E2,2E1,3E0,4.61E2,1.86E2,1.8E1,1.228E3,1.2E1,2.1E1,4.26E2,2.4E1,2E0,5.4E1,1.17E2,9E0,5E0,2.85E2],"tree_param":{"num_deleted":"0","num_feature":"10","num_nodes":"31","size_leaf_vector":"1"}},{"base_weights":[2.7633851E-2,-1.3144329E-1,3.5041842E-1,-3.9663866E-1,-1.4115899E-2,1.974026E-1,4.527972E-1,-6.395349E-1,-3.5490197E-1,-2.9953917E-2,4.4444445E-1,1.1371238E-1,4.827586E-1,2.7450982E-1,5.1666665E-1,-2.6666666E-3,-1.47222215E-2,2.105263E-3,-7.4390243E-3,1.2307692E-2,-7.286822E-4,-5.7142857E-3,1.1282052E-2,1.0126582E-3,6.984127E-3,-1.6666667E-3,1.1315789E-2,8.378378E-3,2.75E-3,7.0999996E-3,1.321267E-2],"categories":[],"categories_nodes":[],"categories_segments":[],"categories_sizes":[],"default_left":[0,0,0,0,0,0,0,0,0,0,0,0,0,0,0,0,0,0,0,0,0,0,0,0,0,0,0,0,0,0,0],"id":28,"left_children":[1,3,5,7,9,11,13,15,17,19,21,23,25,27,29,-1,-1,-1,-1,-1,-1,-1,-1,-1,-1,-1,-1,-1,-1,-1,-1],"loss_changes":[1.486975E2,6.0356884E1,1.4886902E1,5.804947E0,9.78889E0,9.139484E0,6.371605E0,4.1061363E0,4.040344E0,5.467277E0,4.0927954E0,4.423914E0,4.1364193E0,2.969575E0,9.540825E0,0E0,0E0,0E0,0E0,0E0,0E0,0E0,0E0,0E0,0E0,0E0,0E0,0E0,0E0,0E0,0E0],"parents":[2147483647,0,0,1,1,2,2,3,3,4,4,5,5,6,6,7,7,8,8,9,9,10,10,11,11,12,12,13,13,14,14],"right_children":[2,4,6,8,10,12,14,16,18,20,22,24,26,28,30,-1,-1,-1,-1,-1,-1,-1,-1,-1,-1,-1,-1,-1,-1,-1,-1],"split_conditions":[3.25E0,1.4545455E0,4.3333335E0,1E0,1.4545455E0,2.2714285E1,1.7316213E-1,3.7833393E-1,1.52E1,-1.7380953E0,3E0,5E0,2E0,5.0666666E0,4.888889E0,-1.1359522E-2,-1.1359522E-2,3.368424E-3,-1.1359522E-2,1.7966077E-2,-2.2893905E-4,-1.5064535E-2,2.835607E-2,9.493289E-3,2.3537245E-2,-9.1924187E-4,2.8849486E-2,2.3349728E-2,1.7285619E-2,2.5684776E-2,4.7670655E-2],"split_indices":[3,3,1,1,4,6,5,5,6,4,0,0,0,3,3,0,0,0,0,0,0,0,0,0,0,0,0,0,0,0,0],"split_type":[0,0,0,0,0,0,0,0,0,0,0,0,0,0,0,0,0,0,0,0,0,0,0,0,0,0,0,0,0,0,0],"sum_hessian":[2.894E3,1.939E3,9.55E2,5.94E2,1.345E3,3.84E2,5.71E2,8.5E1,5.09E2,1.301E3,4.4E1,2.98E2,8.6E1,1.52E2,4.19E2,1.4E1,7.1E1,1.8E1,4.91E2,1.2E1,1.289E3,6E0,3.8E1,2.36E2,6.2E1,1.1E1,7.5E1,7.3E1,7.9E1,1.99E2,2.2E2],"tree_param":{"num_deleted":"0","num_feature":"10","num_nodes":"31","size_leaf_vector":"1"}},{"base_weights":[2.0274915E-2,-1.3812436E-1,3.4773445E-1,-3.7106016E-1,-9.486166E-3,2.9671717E-1,6.0126585E-1,4E-1,-3.874269E-1,1.6589861E-2,-1.6574585E-1,-0E0,3.228022E-1,1.5E-1,6.618705E-1,6.153846E-3,1.3333334E-2,-8.762677E-3,-5.104167E-3,-3.8938054E-3,8.2219933E-4,4.848485E-3,-5.1006707E-3,4.736842E-3,-6.4285714E-3,3.2352943E-3,7.6952376E-3,1.6666666E-2,-2.6666666E-3,-1E-2,1.34782605E-2],"categories":[],"categories_nodes":[],"categories_segments":[],"categories_sizes":[],"default_left":[0,0,0,0,0,0,0,0,0,0,0,0,0,0,0,0,0,0,0,0,0,0,0,0,0,0,0,0,0,0,0],"id":29,"left_children":[1,3,5,7,9,11,13,15,17,19,21,23,25,27,29,-1,-1,-1,-1,-1,-1,-1,-1,-1,-1,-1,-1,-1,-1,-1,-1],"loss_changes":[1.5098787E2,5.8786713E1,1.209642E1,8.963547E0,5.1571593E0,6.1299744E0,4.2218323E0,1.6410255E-1,4.473999E0,5.6289673E0,6.6582937E0,5.024436E0,7.2016296E0,3.9833333E0,2.281826E0,0E0,0E0,0E0,0E0,0E0,0E0,0E0,0E0,0E0,0E0,0E0,0E0,0E0,0E0,0E0,0E0],"parents":[2147483647,0,0,1,1,2,2,3,3,4,4,5,5,6,6,7,7,8,8,9,9,10,10,11,11,12,12,13,13,14,14],"right_children":[2,4,6,8,10,12,14,16,18,20,22,24,26,28,30,-1,-1,-1,-1,-1,-1,-1,-1,-1,-1,-1,-1,-1,-1,-1,-1],"split_conditions":[3.25E0,1.5384616E0,6.2E0,1.5E1,8.333333E-1,2E0,1.775E1,1.2E0,1.3333334E0,1E0,-5.555556E-1,2.8172904E-1,1.9285715E1,7E0,3.7142856E0,3.3081817E-3,4.408803E-2,-1.1132331E-2,-1.1658163E-2,-8.025905E-3,2.692449E-4,1.832109E-2,-1.2785529E-3,1.1840515E-2,-8.280034E-3,1.1480555E-2,2.4471564E-2,4.8992228E-2,-2.616441E-3,-5.151677E-2,4.7393236E-2],"split_indices":[2,3,2,6,8,0,6,2,3,0,4,5,6,0,3,0,0,0,0,0,0,0,0,0,0,0,0,0,0,0,0],"split_type":[0,0,0,0,0,0,0,0,0,0,0,0,0,0,0,0,0,0,0,0,0,0,0,0,0,0,0,0,0,0,0],"sum_hessian":[2.909E3,1.961E3,9.48E2,6.97E2,1.264E3,7.91E2,1.57E2,1.4E1,6.83E2,1.084E3,1.8E2,6.4E1,7.27E2,1.9E1,1.38E2,1.2E1,2E0,4.92E2,1.91E2,1.12E2,9.72E2,3.2E1,1.48E2,3.7E1,2.7E1,2.03E2,5.24E2,5E0,1.4E1,1E0,1.37E2],"tree_param":{"num_deleted":"0","num_feature":"10","num_nodes":"31","size_leaf_vector":"1"}},{"base_weights":[2.8442595E-2,-1.2832311E-1,3.588362E-1,-4.06E-1,-3.2944407E-2,3.01061E-1,6.0571426E-1,2.6666668E-1,-4.2592594E-1,-1.7378049E-1,7.964602E-3,-5.7971016E-2,3.3673468E-1,6.315789E-1,-4E-1,3.076923E-3,1.3333334E-2,-8.721174E-3,2E-3,-4.4370857E-3,7.407407E-3,-1.1080332E-4,6.2499996E-3,-5.5813957E-3,5.925926E-3,3.3830844E-3,8.106995E-3,3.3333334E-3,1.3636364E-2,-0E0,-1.3333334E-2],"categories":[],"categories_nodes":[],"categories_segments":[],"categories_sizes":[],"default_left":[0,0,0,0,0,0,0,0,0,0,0,0,0,0,0,0,0,0,0,0,0,0,0,0,0,0,0,0,0,0,0],"id":30,"left_children":[1,3,5,7,9,11,13,15,17,19,21,23,25,27,29,-1,-1,-1,-1,-1,-1,-1,-1,-1,-1,-1,-1,-1,-1,-1,-1],"loss_changes":[1.4936926E2,5.179023E1,1.3054115E1,6.8153305E0,8.395838E0,9.67675E0,4.804817E0,5.7435894E-1,2.633545E0,8.662454E0,4.6490593E0,5.4873238E0,7.8194427E0,3.8803864E0,5.3333336E-1,0E0,0E0,0E0,0E0,0E0,0E0,0E0,0E0,0E0,0E0,0E0,0E0,0E0,0E0,0E0,0E0],"parents":[2147483647,0,0,1,1,2,2,3,3,4,4,5,5,6,6,7,7,8,8,9,9,10,10,11,11,12,12,13,13,14,14],"right_children":[2,4,6,8,10,12,14,16,18,20,22,24,26,28,30,-1,-1,-1,-1,-1,-1,-1,-1,-1,-1,-1,-1,-1,-1,-1,-1],"split_conditions":[3.25E0,1.3333334E0,6.3333335E0,1.5E1,1.6666666E0,2E0,2.5454546E1,1E0,1.9E1,2.4857143E1,1.4545455E0,6.533333E-1,1.9357143E1,1.7333334E1,7E0,3.2420182E-3,3.3491945E-3,-1.0909683E-2,8.308964E-3,-1.2150247E-2,7.559037E-3,-1.7733573E-5,1.7416334E-2,-1.3464856E-3,1.2120759E-2,1.1651831E-2,2.3842506E-2,1.0859794E-2,4.5769375E-2,3.0349828E-2,-9.005794E-3],"split_indices":[3,3,1,6,1,0,6,7,7,6,4,8,6,6,0,0,0,0,0,0,0,0,0,0,0,0,0,0,0,0,0],"split_type":[0,0,0,0,0,0,0,0,0,0,0,0,0,0,0,0,0,0,0,0,0,0,0,0,0,0,0,0,0,0,0],"sum_hessian":[2.882E3,1.955E3,9.27E2,4.99E2,1.456E3,7.53E2,1.74E2,1.4E1,4.85E2,3.27E2,1.129E3,6.8E1,6.85E2,1.7E2,4E0,1.2E1,2E0,4.76E2,9E0,3.01E2,2.6E1,1.082E3,4.7E1,4.2E1,2.6E1,2E2,4.85E2,1.7E1,1.53E2,2E0,2E0],"tree_param":{"num_deleted":"0","num_feature":"10","num_nodes":"31","size_leaf_vector":"1"}},{"base_weights":[3.5233162E-2,-1.286157E-1,3.65625E-1,-4.236948E-1,-2.6407227E-2,3.151207E-1,5.9195405E-1,-3.92936E-1,-7.173913E-1,-3.924647E-3,-1.9879518E-1,2.7393225E-1,5.6880736E-1,-0E0,6.4375E-1,-6.733333E-3,-1E-2,1E-2,-1.5111111E-2,-2.6480835E-3,6.680162E-4,4.137931E-3,-5.6521734E-3,3.7151703E-3,7.0588235E-3,1.2277228E-2,-0E0,7.2727273E-3,-1.6E-2,4.5454544E-3,1.4100719E-2],"categories":[],"categories_nodes":[],"categories_segments":[],"categories_sizes":[],"default_left":[0,0,0,0,0,0,0,0,0,0,0,0,0,0,0,0,0,0,0,0,0,0,0,0,0,0,0,0,0,0,0],"id":31,"left_children":[1,3,5,7,9,11,13,15,17,19,21,23,25,27,29,-1,-1,-1,-1,-1,-1,-1,-1,-1,-1,-1,-1,-1,-1,-1,-1],"loss_changes":[1.5676591E2,5.8377758E1,1.0786819E1,4.216919E0,5.5763893E0,8.06752E0,5.3349876E0,2.56073E0,2.5149746E0,6.113962E0,5.702878E0,4.6646996E0,2.7933502E0,4.654546E0,3.9236374E0,0E0,0E0,0E0,0E0,0E0,0E0,0E0,0E0,0E0,0E0,0E0,0E0,0E0,0E0,0E0,0E0],"parents":[2147483647,0,0,1,1,2,2,3,3,4,4,5,5,6,6,7,7,8,8,9,9,10,10,11,11,12,12,13,13,14,14],"right_children":[2,4,6,8,10,12,14,16,18,20,22,24,26,28,30,-1,-1,-1,-1,-1,-1,-1,-1,-1,-1,-1,-1,-1,-1,-1,-1],"split_conditions":[3.25E0,1.3333334E0,6.3333335E0,7.7E-1,8.372222E-1,7E0,1.775E1,2.18E1,1.67E1,1.6666666E0,-5.555556E-1,2.075E1,1.7435898E0,1.72E1,5.6E0,-1.069149E-2,-1.069149E-2,4.9324427E-2,-1.1033552E-2,-1.11693675E-2,2.4478434E-4,1.5894383E-2,-1.4476108E-3,1.1262206E-2,2.1538896E-2,3.5248276E-2,1.0693786E-2,3.2285117E-2,-1.0158443E-2,1.4141884E-2,4.51824E-2],"split_indices":[2,3,1,8,8,0,6,6,6,1,4,6,4,6,2,0,0,0,0,0,0,0,0,0,0,0,0,0,0,0,0],"split_type":[0,0,0,0,0,0,0,0,0,0,0,0,0,0,0,0,0,0,0,0,0,0,0,0,0,0,0,0,0,0,0],"sum_hessian":[2.894E3,1.935E3,9.59E2,4.97E2,1.438E3,7.86E2,1.73E2,4.52E2,4.5E1,1.273E3,1.65E2,6.78E2,1.08E2,1.4E1,1.59E2,2.99E2,1.53E2,1E0,4.4E1,2.86E2,9.87E2,2.8E1,1.37E2,3.22E2,3.56E2,1E2,8E0,1E1,4E0,2.1E1,1.38E2],"tree_param":{"num_deleted":"0","num_feature":"10","num_nodes":"31","size_leaf_vector":"1"}},{"base_weights":[1.8386109E-2,-1.3131814E-1,3.4673914E-1,-3.70317E-1,-6.037736E-3,2.9299363E-1,6.544118E-1,1E-2,-3.876652E-1,1.6145833E-1,-3.4391534E-2,1.10526316E-1,3.5067114E-1,-0E0,7.177419E-1,-1.24731185E-2,-6.9949063E-3,-1.5E-2,3.5978835E-3,-4.1142856E-3,-6.25E-5,-1.5E-2,3.3519554E-3,7.935871E-3,2.244898E-3,6E-3,-1.5E-2,6.2499996E-3,1.5412844E-2],"categories":[],"categories_nodes":[],"categories_segments":[],"categories_sizes":[],"default_left":[0,0,0,0,0,0,0,0,0,0,0,0,0,0,0,0,0,0,0,0,0,0,0,0,0,0,0,0,0],"id":32,"left_children":[1,3,5,7,9,11,13,-1,15,17,19,21,23,25,27,-1,-1,-1,-1,-1,-1,-1,-1,-1,-1,-1,-1,-1,-1],"loss_changes":[1.4441624E2,6.0420467E1,1.50214E1,1.0672142E1,6.298177E0,8.222786E0,5.636387E0,0E0,5.875969E0,3.3611932E0,6.0738196E0,9.456881E0,6.5095596E0,3.15E0,2.4174156E0,0E0,0E0,0E0,0E0,0E0,0E0,0E0,0E0,0E0,0E0,0E0,0E0,0E0,0E0],"parents":[2147483647,0,0,1,1,2,2,3,3,4,4,5,5,6,6,8,8,9,9,10,10,11,11,12,12,13,13,14,14],"right_children":[2,4,6,8,10,12,14,-1,16,18,20,22,24,26,28,-1,-1,-1,-1,-1,-1,-1,-1,-1,-1,-1,-1,-1,-1],"split_conditions":[3.3333333E0,1.5384616E0,6.6666665E0,1.5E1,1.3333334E0,5E0,1.7333334E1,3.3910084E-3,1E0,1.3E1,2.6666667E0,5.9166664E-1,1.0333333E1,9E0,5.5E0,-1.0477659E-2,-1.0477659E-2,-2.0942645E-2,1.898703E-2,-1.6054375E-2,-1.7819404E-5,-8.799009E-3,1.024523E-2,2.8205676E-2,8.145728E-3,4.7149487E-2,-8.941078E-3,2.1145249E-2,4.706273E-2],"split_indices":[3,3,1,6,7,7,6,0,1,6,7,8,7,0,2,0,0,0,0,0,0,0,0,0,0,0,0,0,0],"split_type":[0,0,0,0,0,0,0,0,0,0,0,0,0,0,0,0,0,0,0,0,0,0,0,0,0,0,0,0,0],"sum_hessian":[2.936E3,2.017E3,9.19E2,6.93E2,1.324E3,7.84E2,1.35E2,1.3E1,6.8E2,1.91E2,1.133E3,1.89E2,5.95E2,1.2E1,1.23E2,9.2E1,5.88E2,3E0,1.88E2,1.74E2,9.59E2,1.1E1,1.78E2,4.98E2,9.7E1,9E0,3E0,1.5E1,1.08E2],"tree_param":{"num_deleted":"0","num_feature":"10","num_nodes":"29","size_leaf_vector":"1"}},{"base_weights":[2.1724138E-2,-1.3503836E-1,3.4566596E-1,-3.3188406E-1,-2.764613E-2,2.4259259E-1,4.8157248E-1,-5.7425743E-1,-2.898305E-1,-7.723036E-2,4.4573642E-2,1.9672132E-1,4.122807E-1,2.3703703E-1,6.007326E-1,-2.352941E-3,-1.3176471E-2,-6.810551E-3,-3.3333334E-3,-7.4193547E-3,-1.0144927E-3,1E-2,1.6701462E-4,5.8100554E-3,2.570281E-3,-1.3333334E-2,8.75E-3,7.5609754E-3,3.7037037E-4,1.2222222E-2,-5E-3],"categories":[],"categories_nodes":[],"categories_segments":[],"categories_sizes":[],"default_left":[0,0,0,0,0,0,0,0,0,0,0,0,0,0,0,0,0,0,0,0,0,0,0,0,0,0,0,0,0,0,0],"id":33,"left_children":[1,3,5,7,9,11,13,15,17,19,21,23,25,27,29,-1,-1,-1,-1,-1,-1,-1,-1,-1,-1,-1,-1,-1,-1,-1,-1],"loss_changes":[1.4731427E2,4.1318935E1,1.3135063E1,6.866501E0,4.53694E0,4.122154E0,1.1717125E1,3.822483E0,3.6272316E0,5.828259E0,8.508209E0,2.694004E0,3.3936405E0,4.1528454E0,2.5631866E0,0E0,0E0,0E0,0E0,0E0,0E0,0E0,0E0,0E0,0E0,0E0,0E0,0E0,0E0,0E0,0E0],"parents":[2147483647,0,0,1,1,2,2,3,3,4,4,5,5,6,6,7,7,8,8,9,9,10,10,11,11,12,12,13,13,14,14],"right_children":[2,4,6,8,10,12,14,16,18,20,22,24,26,28,30,-1,-1,-1,-1,-1,-1,-1,-1,-1,-1,-1,-1,-1,-1,-1,-1],"split_conditions":[3.25E0,1.5384616E0,4.6666665E0,1E0,4.6666665E0,6E0,7.3333335E0,3.7833393E-1,1.3333334E0,1E0,-1.0666667E0,3.6666667E0,-7.083333E-1,5.5E0,9E0,-1.0268106E-2,-1.0268106E-2,-1.0268106E-2,-1.0742645E-2,-1.6998649E-2,-1.3985157E-4,1.7574662E-2,6.1182975E-5,1.1612379E-2,1.0040323E-2,-5.405667E-2,2.4857301E-2,2.1989936E-2,1.2756004E-2,3.343494E-2,-2.9282073E-2],"split_indices":[2,3,3,1,7,0,7,5,3,0,4,3,4,1,2,0,0,0,0,0,0,0,0,0,0,0,0,0,0,0,0],"split_type":[0,0,0,0,0,0,0,0,0,0,0,0,0,0,0,0,0,0,0,0,0,0,0,0,0,0,0,0,0,0,0],"sum_hessian":[2.899E3,1.954E3,9.45E2,6.89E2,1.265E3,5.39E2,4.06E2,1E2,5.89E2,7.5E2,5.15E2,4.26E2,1.13E2,1.34E2,2.72E2,1.6E1,8.4E1,4.16E2,1.73E2,6.1E1,6.89E2,3.7E1,4.78E2,1.78E2,2.48E2,2E0,1.11E2,8.1E1,5.3E1,2.69E2,3E0],"tree_param":{"num_deleted":"0","num_feature":"10","num_nodes":"31","size_leaf_vector":"1"}},{"base_weights":[2.1545827E-2,-1.3580875E-1,3.4410843E-1,-3.9679357E-1,-4.7002725E-2,2.8290284E-1,6.802721E-1,-3.5E-1,-6.375E-1,-9.9765256E-2,2.5931928E-2,1.7630854E-1,3.6807096E-1,6.917808E-1,-1E-2,-7.268293E-3,3.6363637E-3,-1.4328358E-2,-4.285714E-3,-1.5641026E-3,-6.5753423E-3,2.4666667E-3,-1.3207548E-3,4.345238E-3,-6.4285714E-3,5.7507986E-3,1.0935252E-2,1.1025641E-2,1.6811593E-2],"categories":[],"categories_nodes":[],"categories_segments":[],"categories_sizes":[],"default_left":[0,0,0,0,0,0,0,0,0,0,0,0,0,0,0,0,0,0,0,0,0,0,0,0,0,0,0,0,0],"id":34,"left_children":[1,3,5,7,9,11,13,15,17,19,21,23,25,27,-1,-1,-1,-1,-1,-1,-1,-1,-1,-1,-1,-1,-1,-1,-1],"loss_changes":[1.4845934E2,4.5547382E1,1.9539078E1,5.3973694E0,5.6517706E0,7.315872E0,2.3426514E0,3.062416E0,2.5184174E0,4.1808767E0,5.535215E0,7.4692287E0,6.3327713E0,2.58889E0,0E0,0E0,0E0,0E0,0E0,0E0,0E0,0E0,0E0,0E0,0E0,0E0,0E0,0E0,0E0],"parents":[2147483647,0,0,1,1,2,2,3,3,4,4,5,5,6,6,7,7,8,8,9,9,10,10,11,11,12,12,13,13],"right_children":[2,4,6,8,10,12,14,16,18,20,22,24,26,28,-1,-1,-1,-1,-1,-1,-1,-1,-1,-1,-1,-1,-1,-1,-1],"split_conditions":[3.25E0,1.3333334E0,6.6666665E0,6.880952E-1,4.3333335E0,6.045177E-1,1.0666667E1,1.4E1,5.555556E-1,8.372222E-1,7E0,5.9166665E0,4.8333335E0,1.0666667E1,-2.869643E-2,-1.0062745E-2,8.933215E-3,-1.0141596E-2,-1.0497966E-2,-3.8666723E-4,-1.0972542E-2,1.79071E-2,-4.6433447E-4,1.4001298E-2,-1.3373551E-2,1.1810129E-2,3.4443997E-2,3.4931224E-2,4.301638E-2],"split_indices":[2,3,1,8,7,8,1,7,4,8,7,3,3,7,0,0,0,0,0,0,0,0,0,0,0,0,0,0,0],"split_type":[0,0,0,0,0,0,0,0,0,0,0,0,0,0,0,0,0,0,0,0,0,0,0,0,0,0,0,0,0],"sum_hessian":[2.923E3,1.965E3,9.58E2,4.98E2,1.467E3,8.12E2,1.46E2,4.19E2,7.9E1,8.51E2,6.16E2,3.62E2,4.5E2,1.45E2,1E0,4.09E2,1E1,6.6E1,1.3E1,7.79E2,7.2E1,2.99E2,3.17E2,3.35E2,2.7E1,3.12E2,1.38E2,7.7E1,6.8E1],"tree_param":{"num_deleted":"0","num_feature":"10","num_nodes":"29","size_leaf_vector":"1"}},{"base_weights":[9.3361E-3,-1.4454733E-1,3.2455215E-1,-4.0567952E-1,-5.5785123E-2,2.4406332E-1,6.40625E-1,2.777778E-1,-4.3067226E-1,-1.2735167E-1,9.186352E-3,1.646489E-1,3.381503E-1,1.5E-1,6.936416E-1,7.0588235E-3,-1E-2,-6.5891473E-3,-1.09589035E-2,-2.142857E-3,-7.916667E-3,-2.8215768E-3,1.5708811E-3,2.8499998E-3,1.5714286E-2,7.3006134E-3,-1.9047619E-3,8.75E-3,-1.6E-2,8.648649E-3,1.5182482E-2],"categories":[],"categories_nodes":[],"categories_segments":[],"categories_sizes":[],"default_left":[0,0,0,0,0,0,0,0,0,0,0,0,0,0,0,0,0,0,0,0,0,0,0,0,0,0,0,0,0,0,0],"id":35,"left_children":[1,3,5,7,9,11,13,15,17,19,21,23,25,27,29,-1,-1,-1,-1,-1,-1,-1,-1,-1,-1,-1,-1,-1,-1,-1,-1],"loss_changes":[1.4032779E2,4.5036697E1,2.3986526E1,8.540802E0,6.7526555E0,5.607994E0,4.890114E0,1.2287583E0,5.4694824E0,3.7067442E0,7.9526825E0,5.569232E0,4.065544E0,5.8125E0,2.6308365E0,0E0,0E0,0E0,0E0,0E0,0E0,0E0,0E0,0E0,0E0,0E0,0E0,0E0,0E0,0E0,0E0],"parents":[2147483647,0,0,1,1,2,2,3,3,4,4,5,5,6,6,7,7,8,8,9,9,10,10,11,11,12,12,13,13,14,14],"right_children":[2,4,6,8,10,12,14,16,18,20,22,24,26,28,30,-1,-1,-1,-1,-1,-1,-1,-1,-1,-1,-1,-1,-1,-1,-1,-1],"split_conditions":[3.25E0,1.3333334E0,6.3333335E0,1.5666667E1,3.4833148E-1,2.1166666E1,1.775E1,1.5E0,3.6602542E-1,7.7E-1,1.8571428E0,9.4E-1,1.9333334E1,1.72E1,5.6666665E0,3.8430332E-3,-3.084224E-2,-9.861491E-3,-9.861491E-3,-5.72772E-4,-4.111638E-3,-1.0433534E-2,6.5069913E-4,1.0390568E-2,5.056817E-2,2.3505377E-2,-2.7990912E-3,3.42326E-2,-1.1704676E-2,2.7231313E-2,4.2695545E-2],"split_indices":[2,3,1,6,5,6,6,1,5,8,3,8,7,6,2,0,0,0,0,0,0,0,0,0,0,0,0,0,0,0,0],"split_type":[0,0,0,0,0,0,0,0,0,0,0,0,0,0,0,0,0,0,0,0,0,0,0,0,0,0,0,0,0,0,0],"sum_hessian":[2.891E3,1.943E3,9.48E2,4.92E2,1.451E3,7.57E2,1.91E2,1.7E1,4.75E2,6.9E2,7.61E2,4.12E2,3.45E2,1.9E1,1.72E2,1.6E1,1E0,2.57E2,2.18E2,6.43E2,4.7E1,2.4E2,5.21E2,3.99E2,1.3E1,3.25E2,2E1,1.5E1,4E0,3.6E1,1.36E2],"tree_param":{"num_deleted":"0","num_feature":"10","num_nodes":"31","size_leaf_vector":"1"}},{"base_weights":[2.3941707E-2,-1.3648024E-1,3.5867238E-1,-3.3868614E-1,-2.687747E-2,2.7391306E-1,5.9591836E-1,1.15384616E-1,-3.560606E-1,-1.761409E-2,-7.058824E-1,2.84041E-1,-6.25E-1,2.9166666E-1,7.183908E-1,8.3333335E-4,1.3333334E-2,-8.193277E-3,-4.3243244E-3,-5.945499E-4,7.179487E-3,5E-3,-1.8571427E-2,5.9580836E-3,-6.2499996E-3,1E-2,-1.7142856E-2,3.8095238E-3,1.8E-2,6.875E-3,1.5944056E-2],"categories":[],"categories_nodes":[],"categories_segments":[],"categories_sizes":[],"default_left":[0,0,0,0,0,0,0,0,0,0,0,0,0,0,0,0,0,0,0,0,0,0,0,0,0,0,0,0,0,0,0],"id":36,"left_children":[1,3,5,7,9,11,13,15,17,19,21,23,25,27,29,-1,-1,-1,-1,-1,-1,-1,-1,-1,-1,-1,-1,-1,-1,-1,-1],"loss_changes":[1.54807E2,4.318527E1,1.8618408E1,5.4452133E0,7.944265E0,6.4593887E0,8.919769E0,1.0288461E0,4.858864E0,5.708321E0,3.8508396E0,5.741478E0,2.517857E0,4.2607145E0,4.8635178E0,0E0,0E0,0E0,0E0,0E0,0E0,0E0,0E0,0E0,0E0,0E0,0E0,0E0,0E0,0E0,0E0],"parents":[2147483647,0,0,1,1,2,2,3,3,4,4,5,5,6,6,7,7,8,8,9,9,10,10,11,11,12,12,13,13,14,14],"right_children":[2,4,6,8,10,12,14,16,18,20,22,24,26,28,30,-1,-1,-1,-1,-1,-1,-1,-1,-1,-1,-1,-1,-1,-1,-1,-1],"split_conditions":[3.25E0,1.5384616E0,5.6E0,1.5666667E1,2.4333334E1,6.4611065E-1,1.95E1,2E0,1.3333334E0,3.5E0,1.8058823E1,2.625E1,2.5714285E0,7.5E0,1.7316213E-1,3.6365485E-3,1.5447222E-2,-9.664261E-3,-1.0427915E-2,-1.17864605E-4,1.6313713E-2,5.9762012E-2,-2.0618534E-2,1.687394E-2,-8.673835E-3,2.693655E-2,-1.4251122E-2,9.341216E-3,6.306284E-2,1.9919757E-2,4.1264895E-2],"split_indices":[2,3,2,6,7,5,6,0,3,3,6,6,3,2,5,0,0,0,0,0,0,0,0,0,0,0,0,0,0,0,0],"split_type":[0,0,0,0,0,0,0,0,0,0,0,0,0,0,0,0,0,0,0,0,0,0,0,0,0,0,0,0,0,0,0],"sum_hessian":[2.881E3,1.948E3,9.33E2,6.84E2,1.264E3,6.89E2,2.44E2,2.5E1,6.59E2,1.248E3,1.6E1,6.82E2,7E0,7.1E1,1.73E2,2.3E1,2E0,4.75E2,1.84E2,1.21E3,3.8E1,3E0,1.3E1,6.67E2,1.5E1,1E0,6E0,6.2E1,9E0,3.1E1,1.42E2],"tree_param":{"num_deleted":"0","num_feature":"10","num_nodes":"31","size_leaf_vector":"1"}},{"base_weights":[1.648918E-2,-1.2613982E-1,3.1663114E-1,-4.236948E-1,-2.5727827E-2,1.9662921E-1,4.7407407E-1,-2.9591838E-1,-6.0487807E-1,-2.96875E-1,-1.3437058E-2,1.4797136E-1,3.7068966E-1,1.8103448E-1,5.8965516E-1,-5.5123675E-3,-1.5E-2,-1.2834225E-2,-4.210526E-3,-2.9166664E-3,-1.4117647E-2,2.368421E-3,-7.750632E-4,2.6108376E-3,1.2857143E-2,8.141592E-3,-1.5E-2,2E-3,8.888889E-3,-8E-3,1.2097902E-2],"categories":[],"categories_nodes":[],"categories_segments":[],"categories_sizes":[],"default_left":[0,0,0,0,0,0,0,0,0,0,0,0,0,0,0,0,0,0,0,0,0,0,0,0,0,0,0,0,0,0,0],"id":37,"left_children":[1,3,5,7,9,11,13,15,17,19,21,23,25,27,29,-1,-1,-1,-1,-1,-1,-1,-1,-1,-1,-1,-1,-1,-1,-1,-1],"loss_changes":[1.2465678E2,5.8968445E1,1.7628845E1,1.1350174E1,4.918272E0,4.4678135E0,1.3610535E1,2.503336E0,2.842575E0,3.8507967E0,4.7247095E0,3.5302095E0,5.036009E0,2.4316094E0,4.615822E0,0E0,0E0,0E0,0E0,0E0,0E0,0E0,0E0,0E0,0E0,0E0,0E0,0E0,0E0,0E0,0E0],"parents":[2147483647,0,0,1,1,2,2,3,3,4,4,5,5,6,6,7,7,8,8,9,9,10,10,11,11,12,12,13,13,14,14],"right_children":[2,4,6,8,10,12,14,16,18,20,22,24,26,28,30,-1,-1,-1,-1,-1,-1,-1,-1,-1,-1,-1,-1,-1,-1,-1,-1],"split_conditions":[3.25E0,1.3333334E0,4.6666665E0,4.0269974E-1,1E0,6E0,1.7316213E-1,8E-1,5.416667E-1,-8.8095236E-1,5.777778E-1,9.4E-1,2.8333333E0,6.6666665E0,3.3333333E0,-9.470975E-3,-1.1616838E-2,-9.470975E-3,-9.793156E-3,-1.3944151E-2,-1.0718846E-2,2.836213E-3,-3.006339E-4,7.7198218E-3,7.92005E-3,2.0770814E-2,-5.548323E-2,1.8079447E-2,3.811715E-2,-3.3657597E-3,4.0275913E-2],"split_indices":[2,3,3,5,1,0,5,4,4,4,8,8,4,1,1,0,0,0,0,0,0,0,0,0,0,0,0,0,0,0,0],"split_type":[0,0,0,0,0,0,0,0,0,0,0,0,0,0,0,0,0,0,0,0,0,0,0,0,0,0,0,0,0,0,0],"sum_hessian":[2.91E3,1.973E3,9.37E2,4.97E2,1.476E3,5.33E2,4.04E2,2.93E2,2.04E2,6.3E1,1.413E3,4.18E2,1.15E2,1.15E2,2.89E2,2.82E2,1.1E1,1.86E2,1.8E1,4.7E1,1.6E1,2.27E2,1.186E3,4.05E2,1.3E1,1.12E2,3E0,8.9E1,2.6E1,4E0,2.85E2],"tree_param":{"num_deleted":"0","num_feature":"10","num_nodes":"31","size_leaf_vector":"1"}},{"base_weights":[1.8861454E-2,-3.582317E-1,1.2826183E-1,1.15384616E-1,-3.771791E-1,3.0138638E-2,3.9800996E-1,2.0833333E-1,-1.3333334E-2,4.4444445E-1,-3.8844302E-1,-1.1803278E-1,6.3468635E-2,1.4965986E-1,4.7702408E-1,1E-3,1.6E-2,-5E-3,1.6666666E-2,-7.980456E-3,6E-3,7.741935E-3,-3.490909E-3,5.288007E-4,3.9057238E-3,1.5E-2,1.9117647E-3,7.078189E-3,1.2279069E-2],"categories":[],"categories_nodes":[],"categories_segments":[],"categories_sizes":[],"default_left":[0,0,0,0,0,0,0,0,0,0,0,0,0,0,0,0,0,0,0,0,0,0,0,0,0,0,0,0,0],"id":38,"left_children":[1,3,5,7,9,11,13,15,-1,17,19,21,23,25,27,-1,-1,-1,-1,-1,-1,-1,-1,-1,-1,-1,-1,-1,-1],"loss_changes":[1.20343E2,5.9303284E0,5.983339E1,2.0288463E0,6.0123672E0,8.200551E0,1.1761383E1,2.2083335E0,0E0,2.6388888E0,4.657379E0,8.774162E0,6.608618E0,4.7001305E0,7.486824E0,0E0,0E0,0E0,0E0,0E0,0E0,0E0,0E0,0E0,0E0,0E0,0E0,0E0,0E0],"parents":[2147483647,0,0,1,1,2,2,3,3,4,4,5,5,6,6,7,7,9,9,10,10,11,11,12,12,13,13,14,14],"right_children":[2,4,6,8,10,12,14,16,-1,18,20,22,24,26,28,-1,-1,-1,-1,-1,-1,-1,-1,-1,-1,-1,-1,-1,-1],"split_conditions":[1.5E0,1.5666667E1,4.3333335E0,1.4E0,-1.7380953E0,1.8333334E1,1.8740992E-1,1E0,-2.0874815E-2,1E0,2.1333334E1,5.885714E-1,3.25E0,1.6E1,5.25E0,3.769629E-3,5.3166808E-3,-1.7219855E-2,2.0567715E-2,-9.281556E-3,9.754074E-3,1.8489351E-2,-2.1951175E-3,1.8902183E-4,9.552231E-3,5.152435E-2,1.2814392E-2,2.447402E-2,3.9377473E-2],"split_indices":[2,6,1,2,4,6,5,7,0,2,7,8,2,6,2,0,0,0,0,0,0,0,0,0,0,0,0,0,0],"split_type":[0,0,0,0,0,0,0,0,0,0,0,0,0,0,0,0,0,0,0,0,0,0,0,0,0,0,0,0,0],"sum_hessian":[2.915E3,6.55E2,2.26E3,2.5E1,6.3E2,1.658E3,6.02E2,2.3E1,2E0,8E0,6.22E2,3.04E2,1.354E3,1.46E2,4.56E2,1.9E1,4E0,3E0,5E0,6.13E2,9E0,3E1,2.74E2,1.058E3,2.96E2,1.1E1,1.35E2,2.42E2,2.14E2],"tree_param":{"num_deleted":"0","num_feature":"10","num_nodes":"29","size_leaf_vector":"1"}},{"base_weights":[1.8678658E-2,-2.2346786E-1,2.2715573E-1,-3.7298092E-1,-6.838906E-2,1.3176265E-1,4.9388754E-1,-2.751479E-1,-4.6802327E-1,-3.198653E-2,-4E-1,5.6572378E-2,2.1428572E-1,1.8181819E-1,6.2283736E-1,4.705882E-3,-6.0248445E-3,-1.1512605E-2,-4.485981E-3,-1.750547E-3,3.0434781E-3,-1.1363636E-2,-9.090909E-4,2.4937657E-3,-1.5920397E-3,3.110048E-3,8.062015E-3,4.8214286E-3,-1E-2,-1.3333334E-2,1.2682926E-2],"categories":[],"categories_nodes":[],"categories_segments":[],"categories_sizes":[],"default_left":[0,0,0,0,0,0,0,0,0,0,0,0,0,0,0,0,0,0,0,0,0,0,0,0,0,0,0,0,0,0,0],"id":39,"left_children":[1,3,5,7,9,11,13,15,17,19,21,23,25,27,29,-1,-1,-1,-1,-1,-1,-1,-1,-1,-1,-1,-1,-1,-1,-1,-1],"loss_changes":[1.4599422E2,3.0997765E1,3.9475464E1,6.203354E0,7.9302363E0,7.098728E0,1.6345444E1,4.572918E0,8.8927765E0,6.089002E0,3.8500004E0,5.584585E0,5.997469E0,5.0089283E0,4.637245E0,0E0,0E0,0E0,0E0,0E0,0E0,0E0,0E0,0E0,0E0,0E0,0E0,0E0,0E0,0E0,0E0],"parents":[2147483647,0,0,1,1,2,2,3,3,4,4,5,5,6,6,7,7,8,8,9,9,10,10,11,11,12,12,13,13,14,14],"right_children":[2,4,6,8,10,12,14,16,18,20,22,24,26,28,30,-1,-1,-1,-1,-1,-1,-1,-1,-1,-1,-1,-1,-1,-1,-1,-1],"split_conditions":[2.4E0,1.5384616E0,4.6666665E0,1.7316213E-1,8.372222E-1,3.25E0,1.7316213E-1,1.5666667E1,1.3333334E0,6.933333E-1,3E0,2.2E1,2.2714285E1,1.1E1,1E0,3.6942363E-3,-9.095926E-3,-9.095926E-3,-9.911184E-3,-3.959465E-4,1.8421412E-3,-1.7450128E-2,-1.83188E-2,1.7837387E-2,-5.5796624E-4,9.141317E-3,1.9754661E-2,1.8163214E-2,-2.2149052E-2,-1.4650828E-2,3.7858132E-2],"split_indices":[3,3,3,5,8,2,5,6,3,8,0,6,6,7,0,0,0,0,0,0,0,0,0,0,0,0,0,0,0,0,0],"split_type":[0,0,0,0,0,0,0,0,0,0,0,0,0,0,0,0,0,0,0,0,0,0,0,0,0,0,0,0,0,0,0],"sum_hessian":[2.89E3,1.337E3,1.553E3,6.8E2,6.57E2,1.145E3,4.08E2,3.37E2,3.43E2,5.93E2,6.4E1,6E2,5.45E2,1.2E2,2.88E2,1.6E1,3.21E2,2.37E2,1.06E2,4.56E2,1.37E2,4.3E1,2.1E1,4E2,2E2,4.17E2,1.28E2,1.11E2,9E0,2E0,2.86E2],"tree_param":{"num_deleted":"0","num_feature":"10","num_nodes":"31","size_leaf_vector":"1"}},{"base_weights":[1.3365319E-2,-3.6581922E-1,1.3478065E-1,-6.1764705E-1,-3.2289952E-1,2.2084195E-2,3.4862384E-1,-1.875E-1,-6.896552E-1,7.4074075E-2,-3.4079173E-1,-7.530121E-2,5.09839E-2,2.8618968E-1,5.766871E-1,-1.0909091E-2,1E-2,-1.4186046E-2,1E-2,3.2E-3,-1.3333334E-2,-7.921761E-3,-4.1618496E-3,-8.955224E-3,3.7593982E-4,1.037037E-2,7.875458E-4,6.2544164E-3,-2.7777778E-3,6.984127E-3,1.4257426E-2],"categories":[],"categories_nodes":[],"categories_segments":[],"categories_sizes":[],"default_left":[0,0,0,0,0,0,0,0,0,0,0,0,0,0,0,0,0,0,0,0,0,0,0,0,0,0,0,0,0,0,0],"id":40,"left_children":[1,3,5,7,9,11,13,15,17,19,21,23,25,27,29,-1,-1,-1,-1,-1,-1,-1,-1,-1,-1,-1,-1,-1,-1,-1,-1],"loss_changes":[1.3439056E2,7.452896E0,5.3276012E1,3.0300446E0,4.336605E0,4.0819182E0,1.0699265E1,4.210227E0,2.3881302E0,1.8251852E0,4.180832E0,1.164429E1,6.0464E0,6.8214073E0,4.800686E0,0E0,0E0,0E0,0E0,0E0,0E0,0E0,0E0,0E0,0E0,0E0,0E0,0E0,0E0,0E0,0E0],"parents":[2147483647,0,0,1,1,2,2,3,3,4,4,5,5,6,6,7,7,8,8,9,9,10,10,11,11,12,12,13,13,14,14],"right_children":[2,4,6,8,10,12,14,16,18,20,22,24,26,28,30,-1,-1,-1,-1,-1,-1,-1,-1,-1,-1,-1,-1,-1,-1,-1,-1],"split_conditions":[1.5384616E0,1E0,3.8E0,3.7833393E-1,1.5666667E1,2.3333333E0,6.2E0,3.279344E-1,2.1333334E1,2E0,1.3333334E0,1.9166666E0,1.625E0,6E0,1.9933332E1,-9.754152E-3,9.380217E-3,-8.914008E-3,9.159637E-3,3.6203526E-3,-2.0267244E-2,-8.914008E-3,-9.900796E-3,-1.6481278E-2,1.2643337E-5,1.739434E-3,3.522539E-4,1.9743685E-2,-7.519164E-3,3.6762297E-2,3.7798986E-2],"split_indices":[3,1,2,5,6,7,2,5,7,7,3,3,3,3,6,0,0,0,0,0,0,0,0,0,0,0,0,0,0,0,0],"split_type":[0,0,0,0,0,0,0,0,0,0,0,0,0,0,0,0,0,0,0,0,0,0,0,0,0,0,0,0,0,0,0],"sum_hessian":[2.917E3,7.07E2,2.21E3,1.01E2,6.06E2,1.448E3,7.62E2,1.5E1,8.6E1,2.6E1,5.8E2,3.31E2,1.117E3,6E2,1.62E2,1E1,5E0,8.5E1,1E0,2.4E1,2E0,4.08E2,1.72E2,6.6E1,2.65E2,2.6E1,1.091E3,5.65E2,3.5E1,6.2E1,1E2],"tree_param":{"num_deleted":"0","num_feature":"10","num_nodes":"31","size_leaf_vector":"1"}},{"base_weights":[1.1720097E-2,-3.8700148E-1,1.3303371E-1,3.5E-1,-4.0881458E-1,-3.325021E-3,2.9325512E-1,4.2105263E-1,-1E-2,-4.6652266E-1,-2.7040815E-1,8.347245E-4,-1.6666666E-2,1.9318181E-1,4.4362745E-1,6.2499996E-3,1.5E-2,-7.295082E-3,-1.1545454E-2,-7.333333E-3,8.5106376E-4,-2.814424E-4,5.483871E-3,2.572062E-3,7.3493975E-3,3.966942E-3,1.0902777E-2],"categories":[],"categories_nodes":[],"categories_segments":[],"categories_sizes":[],"default_left":[0,0,0,0,0,0,0,0,0,0,0,0,0,0,0,0,0,0,0,0,0,0,0,0,0,0,0],"id":41,"left_children":[1,3,5,7,9,11,13,15,-1,17,19,21,-1,23,25,-1,-1,-1,-1,-1,-1,-1,-1,-1,-1,-1,-1],"loss_changes":[1.4037389E2,1.1026733E1,4.861186E1,1.418421E0,5.12941E0,4.1542015E0,1.5308662E1,4.4407892E-1,0E0,5.0078506E0,5.9201393E0,4.885609E0,0E0,6.8860073E0,1.0050568E1,0E0,0E0,0E0,0E0,0E0,0E0,0E0,0E0,0E0,0E0,0E0,0E0],"parents":[2147483647,0,0,1,1,2,2,3,3,4,4,5,5,6,6,7,7,9,9,10,10,11,11,13,13,14,14],"right_children":[2,4,6,8,10,12,14,16,-1,18,20,22,-1,24,26,-1,-1,-1,-1,-1,-1,-1,-1,-1,-1,-1,-1],"split_conditions":[1.5384616E0,1.52E1,3.3333333E0,1.6666666E0,1.3333334E0,4.4545455E0,4.6666665E0,1.3333334E0,-2.9103952E-2,1.7316213E-1,2.3E1,3.5E0,-1.9402636E-2,2.2375E1,1.7316213E-1,3.5479448E-3,6.892967E-3,-8.735728E-3,-8.735728E-3,-9.582538E-3,5.4500625E-3,-9.534359E-5,1.5131478E-2,9.976182E-3,1.8542737E-2,1.5395741E-2,3.293258E-2],"split_indices":[3,6,1,1,3,3,3,1,0,5,6,3,0,6,5,0,0,0,0,0,0,0,0,0,0,0,0],"split_type":[0,0,0,0,0,0,0,0,0,0,0,0,0,0,0,0,0,0,0,0,0,0,0,0,0,0,0],"sum_hessian":[2.9E3,6.76E2,2.224E3,1.9E1,6.57E2,1.202E3,1.022E3,1.8E1,1E0,4.62E2,1.95E2,1.197E3,5E0,6.15E2,4.07E2,1.5E1,3E0,2.43E2,2.19E2,1.49E2,4.6E1,1.136E3,6.1E1,4.5E2,1.65E2,1.2E2,2.87E2],"tree_param":{"num_deleted":"0","num_feature":"10","num_nodes":"27","size_leaf_vector":"1"}},{"base_weights":[1.6084874E-2,-1.266531E-1,3.092999E-1,-3.4512022E-1,-3.968254E-3,2.2926094E-1,4.881356E-1,2.5E-1,-3.619186E-1,1.9837692E-2,-1.7763157E-1,2.4079755E-1,-4.1666666E-1,1.1594203E-1,5.9911895E-1,2.352941E-3,1.5E-2,-8.285714E-3,-4.6231155E-3,-1.013986E-3,1.8959107E-3,6.956522E-3,-5.3846156E-3,1.9736842E-3,5.6686625E-3,1.5E-2,-1.7777778E-2,-2.5E-3,8.666666E-3,7.5E-3,1.3372093E-2],"categories":[],"categories_nodes":[],"categories_segments":[],"categories_sizes":[],"default_left":[0,0,0,0,0,0,0,0,0,0,0,0,0,0,0,0,0,0,0,0,0,0,0,0,0,0,0,0,0,0,0],"id":42,"left_children":[1,3,5,7,9,11,13,15,17,19,21,23,25,27,29,-1,-1,-1,-1,-1,-1,-1,-1,-1,-1,-1,-1,-1,-1,-1,-1],"loss_changes":[1.22333405E2,5.269256E1,1.3586418E1,7.158394E0,5.2126403E0,5.040882E0,1.2116188E1,1.2352941E0,4.6154327E0,5.868423E0,7.409633E0,3.922554E0,7.2777777E0,5.330797E0,3.2843552E0,0E0,0E0,0E0,0E0,0E0,0E0,0E0,0E0,0E0,0E0,0E0,0E0,0E0,0E0,0E0,0E0],"parents":[2147483647,0,0,1,1,2,2,3,3,4,4,5,5,6,6,7,7,8,8,9,9,10,10,11,11,12,12,13,13,14,14],"right_children":[2,4,6,8,10,12,14,16,18,20,22,24,26,28,30,-1,-1,-1,-1,-1,-1,-1,-1,-1,-1,-1,-1,-1,-1,-1,-1],"split_conditions":[3.25E0,1.6E0,5.4E0,1.52E1,8.372222E-1,6.4611065E-1,1.7316213E-1,1E0,1.3333334E0,3.4205127E-1,-5.555556E-1,5E0,4.3333335E0,6.6666665E0,1.95E1,3.476987E-3,4.1029453E-3,-8.561012E-3,-9.323294E-3,-1.588726E-4,9.719801E-4,1.7401194E-2,-1.665473E-3,8.218984E-3,1.8496241E-2,2.5275383E-2,-1.5387191E-2,-7.975225E-3,8.123335E-3,3.5029724E-2,3.671198E-2],"split_indices":[2,2,2,6,8,5,5,7,2,5,4,7,7,1,6,0,0,0,0,0,0,0,0,0,0,0,0,0,0,0,0],"split_type":[0,0,0,0,0,0,0,0,0,0,0,0,0,0,0,0,0,0,0,0,0,0,0,0,0,0,0,0,0,0,0],"sum_hessian":[2.921E3,1.965E3,9.56E2,7.06E2,1.259E3,6.62E2,2.94E2,1.9E1,6.87E2,1.108E3,1.51E2,6.51E2,1.1E1,6.8E1,2.26E2,1.6E1,3E0,4.89E2,1.98E2,5.71E2,5.37E2,2.2E1,1.29E2,1.51E2,5E2,3E0,8E0,3.9E1,2.9E1,5.5E1,1.71E2],"tree_param":{"num_deleted":"0","num_feature":"10","num_nodes":"31","size_leaf_vector":"1"}},{"base_weights":[1.9736841E-2,-3.300423E-1,1.3348624E-1,-3.9E-1,-1.8571429E-1,5.582137E-3,3.0636463E-1,-3.170103E-1,-6.3716817E-1,-2.1674877E-1,6.25E-1,4.214963E-2,-1.0784314E-1,2.0994475E-1,4.4155845E-1,-1.3076923E-2,-5.8402205E-3,1.3333334E-2,-1.3333334E-2,-5.280899E-3,2.3076923E-3,1.7142856E-2,-1E-2,-9.64467E-4,2.122302E-3,-9.629629E-4,-1.081081E-2,-2.8E-3,4.898785E-3,4.173913E-3,1.0774908E-2],"categories":[],"categories_nodes":[],"categories_segments":[],"categories_sizes":[],"default_left":[0,0,0,0,0,0,0,0,0,0,0,0,0,0,0,0,0,0,0,0,0,0,0,0,0,0,0,0,0,0,0],"id":43,"left_children":[1,3,5,7,9,11,13,15,17,19,21,23,25,27,29,-1,-1,-1,-1,-1,-1,-1,-1,-1,-1,-1,-1,-1,-1,-1,-1],"loss_changes":[1.149494E2,6.062958E0,4.8202137E1,8.818375E0,5.4190884E0,5.205734E0,1.1991081E1,3.0762863E0,4.790558E0,3.2193213E0,2.517857E0,5.49105E0,7.8779135E0,6.6839485E0,8.600594E0,0E0,0E0,0E0,0E0,0E0,0E0,0E0,0E0,0E0,0E0,0E0,0E0,0E0,0E0,0E0,0E0],"parents":[2147483647,0,0,1,1,2,2,3,3,4,4,5,5,6,6,7,7,8,8,9,9,10,10,11,11,12,12,13,13,14,14],"right_children":[2,4,6,8,10,12,14,16,18,20,22,24,26,28,30,-1,-1,-1,-1,-1,-1,-1,-1,-1,-1,-1,-1,-1,-1,-1,-1],"split_conditions":[1.5833334E0,1.3333334E0,3.25E0,4E0,2E0,7.5333333E-1,4.6666665E0,4.0714285E-1,2.3E-1,9E0,2.5E0,2.1666667E0,3.2E0,2E0,1.7316213E-1,-8.389792E-3,-8.389792E-3,2.7689777E-2,-8.745525E-3,-9.661586E-3,6.500256E-3,1.5427314E-2,-3.4602333E-2,-1.00526806E-4,1.7051568E-2,-3.4315107E-4,-2.6111626E-3,-6.095104E-3,1.2212639E-2,1.6857171E-2,3.342805E-2],"split_indices":[3,3,2,7,2,8,3,8,8,7,2,3,2,0,5,0,0,0,0,0,0,0,0,0,0,0,0,0,0,0,0],"split_type":[0,0,0,0,0,0,0,0,0,0,0,0,0,0,0,0,0,0,0,0,0,0,0,0,0,0,0,0,0,0,0],"sum_hessian":[2.887E3,7.08E2,2.179E3,4.99E2,2.09E2,1.253E3,9.26E2,3.87E2,1.12E2,2.02E2,7E0,9.48E2,3.05E2,5.42E2,3.84E2,2.5E1,3.62E2,2E0,1.1E2,1.77E2,2.5E1,6E0,1E0,3.93E2,5.55E2,2.69E2,3.6E1,4.9E1,4.93E2,1.14E2,2.7E2],"tree_param":{"num_deleted":"0","num_feature":"10","num_nodes":"31","size_leaf_vector":"1"}},{"base_weights":[-6.956522E-3,-1.5808445E-1,3.072805E-1,-4.4331983E-1,-6.0731538E-2,2.1586716E-1,4.3256998E-1,-3.2786885E-1,-6.263158E-1,-1.8862276E-1,-2.2401433E-2,1.4962594E-1,4.0140846E-1,1.7391305E-1,5.3763443E-1,3.8095238E-3,-7.298245E-3,-1.287234E-2,1.3333334E-2,-4.522293E-3,7.6190475E-3,-8.940719E-4,4.772727E-3,3.2994922E-3,-1.2499999E-2,9.636363E-3,2.4242424E-3,1.3333334E-2,2.6168223E-3,-1.5E-2,1.1086956E-2],"categories":[],"categories_nodes":[],"categories_segments":[],"categories_sizes":[],"default_left":[0,0,0,0,0,0,0,0,0,0,0,0,0,0,0,0,0,0,0,0,0,0,0,0,0,0,0,0,0,0,0],"id":44,"left_children":[1,3,5,7,9,11,13,15,17,19,21,23,25,27,29,-1,-1,-1,-1,-1,-1,-1,-1,-1,-1,-1,-1,-1,-1,-1,-1],"loss_changes":[1.365823E2,5.3899494E1,1.0603844E1,1.0231422E1,7.098893E0,6.6013794E0,1.0586533E1,5.9258995E0,4.6794205E0,7.218526E0,6.5076933E0,4.8707943E0,3.1409302E0,2.353515E0,6.4200516E0,0E0,0E0,0E0,0E0,0E0,0E0,0E0,0E0,0E0,0E0,0E0,0E0,0E0,0E0,0E0,0E0],"parents":[2147483647,0,0,1,1,2,2,3,3,4,4,5,5,6,6,7,7,8,8,9,9,10,10,11,11,12,12,13,13,14,14],"right_children":[2,4,6,8,10,12,14,16,18,20,22,24,26,28,30,-1,-1,-1,-1,-1,-1,-1,-1,-1,-1,-1,-1,-1,-1,-1,-1],"split_conditions":[3.25E0,1.3333334E0,4.6666665E0,4.4948974E-1,1.6666666E0,2.2545454E1,1.7316213E-1,1.5666667E1,2.3333333E0,2.5222221E1,5.4446656E-1,6.4611065E-1,2.5222221E1,4.8E0,-1.8571428E0,3.5453164E-3,-8.221996E-3,-8.221996E-3,3.90439E-2,-9.567571E-3,2.231241E-2,-2.549839E-4,1.696692E-2,7.830715E-3,-1.1160035E-2,1.7572617E-2,7.036953E-3,5.132706E-2,8.499971E-3,-6.3655186E-3,3.4283534E-2],"split_indices":[2,3,3,5,1,6,5,6,1,6,5,5,6,2,4,0,0,0,0,0,0,0,0,0,0,0,0,0,0,0,0],"split_type":[0,0,0,0,0,0,0,0,0,0,0,0,0,0,0,0,0,0,0,0,0,0,0,0,0,0,0,0,0,0,0],"sum_hessian":[2.874E3,1.941E3,9.33E2,4.93E2,1.448E3,5.41E2,3.92E2,3.04E2,1.89E2,3.33E2,1.115E3,4E2,1.41E2,1.14E2,2.78E2,2E1,2.84E2,1.87E2,2E0,3.13E2,2E1,1.028E3,8.7E1,3.93E2,7E0,1.09E2,3.2E1,8E0,1.06E2,3E0,2.75E2],"tree_param":{"num_deleted":"0","num_feature":"10","num_nodes":"31","size_leaf_vector":"1"}},{"base_weights":[-6.8704914E-3,-4.4095942E-1,9.2405066E-2,-3.3841464E-1,-5.9534883E-1,2.1750953E-3,4.0413535E-1,-3.1746033E-1,-7.8571427E-1,-6.268657E-1,-1.3333334E-1,-3.810868E-2,1.3711584E-1,2.0408164E-1,4.792746E-1,-6.6883117E-3,7.5E-3,-1.8333333E-2,-0E0,-1.27E-2,1E-2,-1.2499999E-2,7.5E-3,-1.6914285E-3,7.366482E-4,9.5652166E-4,4.8453608E-3,-5.5555557E-3,5.3846156E-3,6.153846E-3,1.1557377E-2],"categories":[],"categories_nodes":[],"categories_segments":[],"categories_sizes":[],"default_left":[0,0,0,0,0,0,0,0,0,0,0,0,0,0,0,0,0,0,0,0,0,0,0,0,0,0,0,0,0,0,0],"id":45,"left_children":[1,3,5,7,9,11,13,15,17,19,21,23,25,27,29,-1,-1,-1,-1,-1,-1,-1,-1,-1,-1,-1,-1,-1,-1,-1,-1],"loss_changes":[1.25488594E2,8.379379E0,6.666109E1,2.8248634E0,3.0470963E0,1.0001887E1,7.8991547E0,3.8237743E0,1.4404755E0,2.1599197E0,3.9833333E0,4.937065E0,3.9599657E0,4.689517E0,6.352165E0,0E0,0E0,0E0,0E0,0E0,0E0,0E0,0E0,0E0,0E0,0E0,0E0,0E0,0E0,0E0,0E0],"parents":[2147483647,0,0,1,1,2,2,3,3,4,4,5,5,6,6,7,7,8,8,9,9,10,10,11,11,12,12,13,13,14,14],"right_children":[2,4,6,8,10,12,14,16,18,20,22,24,26,28,30,-1,-1,-1,-1,-1,-1,-1,-1,-1,-1,-1,-1,-1,-1,-1,-1],"split_conditions":[1.3636364E0,4.2705098E-1,4.25E0,8E-1,1.3333334E0,3.25E0,1.7316213E-1,1.5E0,1.3333334E0,2E0,6.009524E-1,3E0,2.2222222E-1,4E0,5E0,-8.057556E-3,9.327881E-3,-1.0533459E-2,8.910294E-3,-8.057556E-3,2.807689E-2,-7.971129E-3,1.1514649E-2,-6.688905E-4,4.296875E-4,4.476166E-3,9.8906085E-3,-4.403696E-3,1.7270412E-2,1.9391317E-2,3.442257E-2],"split_indices":[3,5,3,4,3,2,5,2,4,2,8,0,4,0,3,0,0,0,0,0,0,0,0,0,0,0,0,0,0,0,0],"split_type":[0,0,0,0,0,0,0,0,0,0,0,0,0,0,0,0,0,0,0,0,0,0,0,0,0,0,0,0,0,0,0],"sum_hessian":[2.91E3,5.41E2,2.369E3,3.27E2,2.14E2,1.838E3,5.31E2,3.14E2,1.3E1,2E2,1.4E1,1.416E3,4.22E2,1.46E2,3.85E2,3.07E2,7E0,1.1E1,2E0,1.99E2,1E0,7E0,7E0,8.74E2,5.42E2,2.29E2,1.93E2,1.7E1,1.29E2,1.42E2,2.43E2],"tree_param":{"num_deleted":"0","num_feature":"10","num_nodes":"31","size_leaf_vector":"1"}},{"base_weights":[-2.7614774E-3,-3.6879432E-1,1.1491108E-1,2.9166666E-1,-3.9149562E-1,2.4550898E-2,4.0267175E-1,3.809524E-1,-2.5E-1,-4.6153846E-1,-2.2277227E-1,-1.7670684E-2,1.4788732E-1,2.03125E-1,5.165165E-1,5.5555557E-3,1.5E-2,-1.3333334E-2,1E-2,-7.3408238E-3,-1.1534884E-2,-1.5384615E-2,-3.6842104E-3,-5.215974E-4,1.0526316E-2,1.9571865E-3,6.1999997E-3,1.2800001E-3,9.117647E-3,1.0851734E-2,-0E0],"categories":[],"categories_nodes":[],"categories_segments":[],"categories_sizes":[],"default_left":[0,0,0,0,0,0,0,0,0,0,0,0,0,0,0,0,0,0,0,0,0,0,0,0,0,0,0,0,0,0,0],"id":46,"left_children":[1,3,5,7,9,11,13,15,17,19,21,23,25,27,29,-1,-1,-1,-1,-1,-1,-1,-1,-1,-1,-1,-1,-1,-1,-1,-1],"loss_changes":[1.2482202E2,1.06844635E1,5.701273E1,1.2559524E0,7.9569626E0,8.699069E0,1.1798981E1,5.9126973E-1,1.5833334E0,5.0247726E0,4.1149235E0,5.7089586E0,3.4245968E0,6.722478E0,4.4840775E0,0E0,0E0,0E0,0E0,0E0,0E0,0E0,0E0,0E0,0E0,0E0,0E0,0E0,0E0,0E0,0E0],"parents":[2147483647,0,0,1,1,2,2,3,3,4,4,5,5,6,6,7,7,8,8,9,9,10,10,11,11,12,12,13,13,14,14],"right_children":[2,4,6,8,10,12,14,16,18,20,22,24,26,28,30,-1,-1,-1,-1,-1,-1,-1,-1,-1,-1,-1,-1,-1,-1,-1,-1],"split_conditions":[1.6E0,1.5666667E1,4.214286E0,1.4E0,1.3333334E0,3.25E0,7.3333335E0,1.3333334E0,1.5E0,3.6602542E-1,1.72E1,3.625E0,2.2545454E1,6.723809E-1,1.9E1,3.66549E-3,6.82734E-3,-1.9091273E-2,8.3595976E-2,-7.896404E-3,-7.896404E-3,-1.1612899E-2,-8.724561E-3,-8.003711E-5,3.2244723E-2,4.9179336E-3,9.455047E-3,1.009515E-2,2.7214961E-2,3.1873684E-2,2.3552726E-3],"split_indices":[3,6,3,2,3,2,7,1,2,5,6,3,6,8,7,0,0,0,0,0,0,0,0,0,0,0,0,0,0,0,0],"split_type":[0,0,0,0,0,0,0,0,0,0,0,0,0,0,0,0,0,0,0,0,0,0,0,0,0,0,0,0,0,0,0],"sum_hessian":[2.896E3,7.04E2,2.192E3,2.3E1,6.81E2,1.669E3,5.23E2,2E1,3E0,4.8E2,2.01E2,1.244E3,4.25E2,1.91E2,3.32E2,1.7E1,3E0,2E0,1E0,2.66E2,2.14E2,1.2E1,1.89E2,1.226E3,1.8E1,3.26E2,9.9E1,1.24E2,6.7E1,3.16E2,1.6E1],"tree_param":{"num_deleted":"0","num_feature":"10","num_nodes":"31","size_leaf_vector":"1"}},{"base_weights":[8.199521E-3,-1.3176353E-1,3.0793992E-1,-4.271255E-1,-3.459747E-2,2.1698113E-1,4.26799E-1,2.3529412E-1,-4.497908E-1,-3.1746033E-1,-2.22068E-2,-7.54717E-2,2.4895397E-1,2.5165564E-1,5.2964425E-1,-1E-2,6.2499996E-3,-8.149883E-3,-1.576923E-2,-1.2499999E-2,-2.5E-3,-1.1666666E-2,-3.4965033E-4,9.302325E-4,-1.0909091E-2,4.2494223E-3,1.173913E-2,5.7142857E-3,-1.6E-2,9.081081E-3,1.4492753E-2],"categories":[],"categories_nodes":[],"categories_segments":[],"categories_sizes":[],"default_left":[0,0,0,0,0,0,0,0,0,0,0,0,0,0,0,0,0,0,0,0,0,0,0,0,0,0,0,0,0,0,0],"id":47,"left_children":[1,3,5,7,9,11,13,15,17,19,21,23,25,27,29,-1,-1,-1,-1,-1,-1,-1,-1,-1,-1,-1,-1,-1,-1,-1,-1],"loss_changes":[1.2283578E2,5.7268745E1,9.983505E0,7.5227203E0,5.2607555E0,4.974581E0,7.1258163E0,1.1213236E0,6.5258865E0,3.6507936E0,3.8097787E0,3.0638638E0,5.7696495E0,5.637086E0,3.4000854E0,0E0,0E0,0E0,0E0,0E0,0E0,0E0,0E0,0E0,0E0,0E0,0E0,0E0,0E0,0E0,0E0],"parents":[2147483647,0,0,1,1,2,2,3,3,4,4,5,5,6,6,7,7,8,8,9,9,10,10,11,11,12,12,13,13,14,14],"right_children":[2,4,6,8,10,12,14,16,18,20,22,24,26,28,30,-1,-1,-1,-1,-1,-1,-1,-1,-1,-1,-1,-1,-1,-1,-1,-1],"split_conditions":[3.25E0,1.3333334E0,4.6666665E0,1.52E1,1E0,2E0,6.009524E-1,1E0,7.7E-1,1.5384616E0,1E0,7.6666665E0,8.666667E-1,1.6333334E1,1.0666667E1,-2.7956948E-2,3.592181E-3,-7.7384757E-3,-8.136189E-3,-9.014377E-3,-1.3371555E-2,-9.151682E-3,-7.843494E-5,5.104489E-3,-9.529834E-3,9.023532E-3,2.1899637E-2,1.8362569E-2,-2.678844E-2,2.7740799E-2,3.3606756E-2],"split_indices":[2,3,3,6,1,0,8,0,8,3,2,7,8,7,7,0,0,0,0,0,0,0,0,0,0,0,0,0,0,0,0],"split_type":[0,0,0,0,0,0,0,0,0,0,0,0,0,0,0,0,0,0,0,0,0,0,0,0,0,0,0,0,0,0,0],"sum_hessian":[2.926E3,1.995E3,9.31E2,4.93E2,1.502E3,5.29E2,4.02E2,1.6E1,4.77E2,6.2E1,1.44E3,5.2E1,4.77E2,1.5E2,2.52E2,1E0,1.5E1,4.26E2,5.1E1,2.3E1,3.9E1,1.1E1,1.429E3,4.2E1,1E1,4.32E2,4.5E1,1.46E2,4E0,1.84E2,6.8E1],"tree_param":{"num_deleted":"0","num_feature":"10","num_nodes":"31","size_leaf_vector":"1"}},{"base_weights":[1.5823873E-2,-1.6431637E-1,2.458888E-1,-3.8446215E-1,-6.637168E-2,1.4073226E-1,4.7277227E-1,1.875E-1,-4.0246406E-1,-1.9325154E-1,-1.4906832E-2,-1.3084112E-1,1.7838542E-1,2.4166666E-1,5.6842107E-1,1.4285714E-3,1.3333334E-2,-7.241379E-3,-1.195122E-2,8.888889E-3,-4.2138365E-3,-2.6973686E-3,1.1553785E-3,9.523809E-3,-5.517241E-3,1.7777778E-2,3.394737E-3,-1.5E-2,5.4700854E-3,8.192771E-3,1.2610837E-2],"categories":[],"categories_nodes":[],"categories_segments":[],"categories_sizes":[],"default_left":[0,0,0,0,0,0,0,0,0,0,0,0,0,0,0,0,0,0,0,0,0,0,0,0,0,0,0,0,0,0,0],"id":48,"left_children":[1,3,5,7,9,11,13,15,17,19,21,23,25,27,29,-1,-1,-1,-1,-1,-1,-1,-1,-1,-1,-1,-1,-1,-1,-1,-1],"loss_changes":[1.20517975E2,3.514228E1,3.040049E1,5.2442627E0,7.375852E0,8.96051E0,8.793037E0,8.422619E-1,3.621666E0,3.719283E0,7.026022E0,9.550819E0,4.5683613E0,3.993804E0,2.5528564E0,0E0,0E0,0E0,0E0,0E0,0E0,0E0,0E0,0E0,0E0,0E0,0E0,0E0,0E0,0E0,0E0],"parents":[2147483647,0,0,1,1,2,2,3,3,4,4,5,5,6,6,7,7,8,8,9,9,10,10,11,11,12,12,13,13,14,14],"right_children":[2,4,6,8,10,12,14,16,18,20,22,24,26,28,30,-1,-1,-1,-1,-1,-1,-1,-1,-1,-1,-1,-1,-1,-1,-1,-1],"split_conditions":[2.7692308E0,1.3333334E0,4.6666665E0,1.5E1,2.3333333E0,2E0,7E0,1E0,6.880952E-1,1.5666667E1,2.02E1,1.9076923E1,4.3333334E-1,3E0,1.95E1,3.5203386E-3,3.404715E-3,-7.583706E-3,-7.821076E-3,3.366747E-3,-8.9686485E-3,-1.4175177E-3,3.3102036E-4,1.9343812E-2,-2.4445676E-3,6.3679725E-2,1.248075E-2,-2.4120359E-2,1.6095411E-2,3.34193E-2,3.256144E-2],"split_indices":[3,3,3,6,7,0,7,7,8,6,6,6,8,1,6,0,0,0,0,0,0,0,0,0,0,0,0,0,0,0,0],"split_type":[0,0,0,0,0,0,0,0,0,0,0,0,0,0,0,0,0,0,0,0,0,0,0,0,0,0,0,0,0,0,0],"sum_hessian":[2.906E3,1.63E3,1.276E3,5.01E2,1.129E3,8.73E2,4.03E2,1.5E1,4.86E2,3.25E2,8.04E2,1.06E2,7.67E2,1.19E2,2.84E2,1.3E1,2E0,4.05E2,8.1E1,8E0,3.17E2,3.03E2,5.01E2,2E1,8.6E1,8E0,7.59E2,3E0,1.16E2,8.2E1,2.02E2],"tree_param":{"num_deleted":"0","num_feature":"10","num_nodes":"31","size_leaf_vector":"1"}},{"base_weights":[1.2929568E-2,-3.6953455E-1,1.3446885E-1,-5.769231E-1,-3.224138E-1,4.719764E-2,4.0968344E-1,-5.8914727E-1,1E-2,2.1052632E-1,-3.3985764E-1,3.197442E-3,1.7078651E-1,2.451923E-1,5.121212E-1,-1.3670885E-2,-8.627451E-3,-1E-2,5.5555557E-3,-7.845036E-3,-3.8666665E-3,-3.6206895E-3,4.4014084E-4,1.3270143E-3,5.2765957E-3,5.6281406E-3,-1E-2,3.4999999E-3,1.113402E-2],"categories":[],"categories_nodes":[],"categories_segments":[],"categories_sizes":[],"default_left":[0,0,0,0,0,0,0,0,0,0,0,0,0,0,0,0,0,0,0,0,0,0,0,0,0,0,0,0,0],"id":49,"left_children":[1,3,5,7,9,11,13,15,-1,17,19,21,23,25,27,-1,-1,-1,-1,-1,-1,-1,-1,-1,-1,-1,-1,-1,-1],"loss_changes":[1.3666739E2,6.7425537E0,5.356551E1,2.0059624E0,5.4635353E0,9.216754E0,8.9229355E0,1.6263962E0,0E0,1.0467836E0,4.2386475E0,4.3391104E0,4.3065805E0,5.7539854E0,4.8620834E0,0E0,0E0,0E0,0E0,0E0,0E0,0E0,0E0,0E0,0E0,0E0,0E0,0E0,0E0],"parents":[2147483647,0,0,1,1,2,2,3,3,4,4,5,5,6,6,7,7,9,9,10,10,11,11,12,12,13,13,14,14],"right_children":[2,4,6,8,10,12,14,16,-1,18,20,22,24,26,28,-1,-1,-1,-1,-1,-1,-1,-1,-1,-1,-1,-1,-1,-1],"split_conditions":[1.5384616E0,-2.5E-1,4.214286E0,1.6666666E0,1.52E1,3.25E0,6.045177E-1,1.3333334E0,9.5906975E-3,1E0,1.3333334E0,1E0,2.075E1,1.3333333E1,4.4545455E0,-7.4320314E-3,-8.611992E-3,-2.7246134E-2,3.449931E-3,-7.4320314E-3,-8.569429E-3,-2.5290346E-3,1.02505684E-4,3.313887E-3,1.5278809E-2,1.6616497E-2,-4.495349E-3,1.1369829E-2,3.1288642E-2],"split_indices":[3,4,3,2,6,2,8,3,0,0,3,0,6,7,3,0,0,0,0,0,0,0,0,0,0,0,0,0,0],"split_type":[0,0,0,0,0,0,0,0,0,0,0,0,0,0,0,0,0,0,0,0,0,0,0,0,0,0,0,0,0],"sum_hessian":[2.938E3,7.08E2,2.23E3,1.29E2,5.79E2,1.694E3,5.36E2,1.28E2,1E0,1.8E1,5.61E2,1.25E3,4.44E2,2.07E2,3.29E2,7.8E1,5E1,1E0,1.7E1,4.12E2,1.49E2,1.15E2,1.135E3,2.1E2,2.34E2,1.98E2,9E0,3.9E1,2.9E2],"tree_param":{"num_deleted":"0","num_feature":"10","num_nodes":"29","size_leaf_vector":"1"}},{"base_weights":[2.5224602E-2,